<GAP_2021_9_2_60_19_36_43_445>
<Potential label="GAP_2021_9_2_60_19_36_43_445" init_args="IP GAP label=GAP_2021_9_2_60_19_36_43_445"/>
<GAP_params label="GAP_2021_9_2_60_19_36_43_445" gap_version="1616547985">
  <GAP_data do_core="F">
    <e0 Z="1" value=".00000000000000000E+000"/>
    <e0 Z="2" value=".00000000000000000E+000"/>
    <e0 Z="3" value=".00000000000000000E+000"/>
    <e0 Z="4" value=".00000000000000000E+000"/>
    <e0 Z="5" value=".00000000000000000E+000"/>
    <e0 Z="6" value=".00000000000000000E+000"/>
    <e0 Z="7" value=".00000000000000000E+000"/>
    <e0 Z="8" value=".00000000000000000E+000"/>
    <e0 Z="9" value=".00000000000000000E+000"/>
    <e0 Z="10" value=".00000000000000000E+000"/>
    <e0 Z="11" value=".00000000000000000E+000"/>
    <e0 Z="12" value=".00000000000000000E+000"/>
    <e0 Z="13" value="-107.13070000000000"/>
    <e0 Z="14" value=".00000000000000000E+000"/>
    <e0 Z="15" value=".00000000000000000E+000"/>
    <e0 Z="16" value=".00000000000000000E+000"/>
    <e0 Z="17" value=".00000000000000000E+000"/>
    <e0 Z="18" value=".00000000000000000E+000"/>
    <e0 Z="19" value=".00000000000000000E+000"/>
    <e0 Z="20" value=".00000000000000000E+000"/>
    <e0 Z="21" value=".00000000000000000E+000"/>
    <e0 Z="22" value="-1587.0084999999999"/>
    <e0 Z="23" value=".00000000000000000E+000"/>
    <e0 Z="24" value=".00000000000000000E+000"/>
    <e0 Z="25" value=".00000000000000000E+000"/>
    <e0 Z="26" value=".00000000000000000E+000"/>
    <e0 Z="27" value=".00000000000000000E+000"/>
    <e0 Z="28" value=".00000000000000000E+000"/>
    <e0 Z="29" value=".00000000000000000E+000"/>
    <e0 Z="30" value=".00000000000000000E+000"/>
    <e0 Z="31" value=".00000000000000000E+000"/>
    <e0 Z="32" value=".00000000000000000E+000"/>
    <e0 Z="33" value=".00000000000000000E+000"/>
    <e0 Z="34" value=".00000000000000000E+000"/>
    <e0 Z="35" value=".00000000000000000E+000"/>
    <e0 Z="36" value=".00000000000000000E+000"/>
    <e0 Z="37" value=".00000000000000000E+000"/>
    <e0 Z="38" value=".00000000000000000E+000"/>
    <e0 Z="39" value=".00000000000000000E+000"/>
    <e0 Z="40" value=".00000000000000000E+000"/>
    <e0 Z="41" value=".00000000000000000E+000"/>
    <e0 Z="42" value=".00000000000000000E+000"/>
    <e0 Z="43" value=".00000000000000000E+000"/>
    <e0 Z="44" value=".00000000000000000E+000"/>
    <e0 Z="45" value=".00000000000000000E+000"/>
    <e0 Z="46" value=".00000000000000000E+000"/>
    <e0 Z="47" value=".00000000000000000E+000"/>
    <e0 Z="48" value=".00000000000000000E+000"/>
    <e0 Z="49" value=".00000000000000000E+000"/>
    <e0 Z="50" value=".00000000000000000E+000"/>
    <e0 Z="51" value=".00000000000000000E+000"/>
    <e0 Z="52" value=".00000000000000000E+000"/>
    <e0 Z="53" value=".00000000000000000E+000"/>
    <e0 Z="54" value=".00000000000000000E+000"/>
    <e0 Z="55" value=".00000000000000000E+000"/>
    <e0 Z="56" value=".00000000000000000E+000"/>
    <e0 Z="57" value=".00000000000000000E+000"/>
    <e0 Z="58" value=".00000000000000000E+000"/>
    <e0 Z="59" value=".00000000000000000E+000"/>
    <e0 Z="60" value=".00000000000000000E+000"/>
    <e0 Z="61" value=".00000000000000000E+000"/>
    <e0 Z="62" value=".00000000000000000E+000"/>
    <e0 Z="63" value=".00000000000000000E+000"/>
    <e0 Z="64" value=".00000000000000000E+000"/>
    <e0 Z="65" value=".00000000000000000E+000"/>
    <e0 Z="66" value=".00000000000000000E+000"/>
    <e0 Z="67" value=".00000000000000000E+000"/>
    <e0 Z="68" value=".00000000000000000E+000"/>
    <e0 Z="69" value=".00000000000000000E+000"/>
    <e0 Z="70" value=".00000000000000000E+000"/>
    <e0 Z="71" value=".00000000000000000E+000"/>
    <e0 Z="72" value=".00000000000000000E+000"/>
    <e0 Z="73" value=".00000000000000000E+000"/>
    <e0 Z="74" value=".00000000000000000E+000"/>
    <e0 Z="75" value=".00000000000000000E+000"/>
    <e0 Z="76" value=".00000000000000000E+000"/>
    <e0 Z="77" value=".00000000000000000E+000"/>
    <e0 Z="78" value=".00000000000000000E+000"/>
    <e0 Z="79" value=".00000000000000000E+000"/>
    <e0 Z="80" value=".00000000000000000E+000"/>
    <e0 Z="81" value=".00000000000000000E+000"/>
    <e0 Z="82" value=".00000000000000000E+000"/>
    <e0 Z="83" value=".00000000000000000E+000"/>
    <e0 Z="84" value=".00000000000000000E+000"/>
    <e0 Z="85" value=".00000000000000000E+000"/>
    <e0 Z="86" value=".00000000000000000E+000"/>
    <e0 Z="87" value=".00000000000000000E+000"/>
    <e0 Z="88" value=".00000000000000000E+000"/>
    <e0 Z="89" value=".00000000000000000E+000"/>
    <e0 Z="90" value=".00000000000000000E+000"/>
    <e0 Z="91" value=".00000000000000000E+000"/>
    <e0 Z="92" value=".00000000000000000E+000"/>
    <e0 Z="93" value=".00000000000000000E+000"/>
    <e0 Z="94" value=".00000000000000000E+000"/>
    <e0 Z="95" value=".00000000000000000E+000"/>
    <e0 Z="96" value=".00000000000000000E+000"/>
    <e0 Z="97" value=".00000000000000000E+000"/>
    <e0 Z="98" value=".00000000000000000E+000"/>
    <e0 Z="99" value=".00000000000000000E+000"/>
    <e0 Z="100" value=".00000000000000000E+000"/>
    <e0 Z="101" value=".00000000000000000E+000"/>
    <e0 Z="102" value=".00000000000000000E+000"/>
    <e0 Z="103" value=".00000000000000000E+000"/>
    <e0 Z="104" value=".00000000000000000E+000"/>
    <e0 Z="105" value=".00000000000000000E+000"/>
    <e0 Z="106" value=".00000000000000000E+000"/>
    <e0 Z="107" value=".00000000000000000E+000"/>
    <e0 Z="108" value=".00000000000000000E+000"/>
    <e0 Z="109" value=".00000000000000000E+000"/>
    <e0 Z="110" value=".00000000000000000E+000"/>
    <e0 Z="111" value=".00000000000000000E+000"/>
    <e0 Z="112" value=".00000000000000000E+000"/>
    <e0 Z="113" value=".00000000000000000E+000"/>
    <e0 Z="114" value=".00000000000000000E+000"/>
    <e0 Z="115" value=".00000000000000000E+000"/>
    <e0 Z="116" value=".00000000000000000E+000"/>
    <e0 Z="117" value=".00000000000000000E+000"/>
    <e0 Z="118" value=".00000000000000000E+000"/>
  </GAP_data>
  <gpSparse label="GAP_2021_9_2_60_19_36_43_445" n_coordinate="5">
    <gpCoordinates label="GAP_2021_9_2_60_19_36_43_4451" dimensions="1" signal_variance="1.0000000000000000" signal_mean=".00000000000000000E+000" sparsified="T" n_permutations="2" covariance_type="1" n_sparseX="100" sparseX_filename="TiAl.xml.sparseX.GAP_2021_9_2_60_19_36_43_4451" sparseX_md5sum="32d7decdd3bcbfc888055ee9c7858373">
      <theta>  0.25000000000000000E+001 </theta>
      <descriptor>distance_Nb order=2 cutoff=3.5 n_sparse=100 covariance_type=ard_se delta=1.0 theta_uniform=2.5 sparse_method=uniform compact_clusters=T Z={13 13 }</descriptor>
      <permutation i="1">1  </permutation>
      <permutation i="2">1  </permutation>
      <sparseX i="1" alpha="7616.3618122864118" sparseCutoff=".57149753743116383"/>
      <sparseX i="2" alpha="424.86979051538702" sparseCutoff=".80950668844648421"/>
      <sparseX i="3" alpha="-2282.7879369118764" sparseCutoff="1.0000000000000000"/>
      <sparseX i="4" alpha="1744.1106909340544" sparseCutoff="1.0000000000000000"/>
      <sparseX i="5" alpha="-7022.7044706802853" sparseCutoff="1.0000000000000000"/>
      <sparseX i="6" alpha="7514.6227679390195" sparseCutoff=".11813377330983815"/>
      <sparseX i="7" alpha="-1121.3364757646284" sparseCutoff=".85136334932115187"/>
      <sparseX i="8" alpha="4039.0315861162526" sparseCutoff=".70211484409023239"/>
      <sparseX i="9" alpha="-6181.1214617549977" sparseCutoff=".97524345516901056"/>
      <sparseX i="10" alpha="4646.3919887204074" sparseCutoff="1.0000000000000000"/>
      <sparseX i="11" alpha="10736.963609776189" sparseCutoff=".36196067697855672"/>
      <sparseX i="12" alpha="-6055.3373782174440" sparseCutoff="1.0000000000000000"/>
      <sparseX i="13" alpha="-3277.7999624097883" sparseCutoff=".90671027421542116"/>
      <sparseX i="14" alpha="-3391.7611854280653" sparseCutoff="1.0000000000000000"/>
      <sparseX i="15" alpha="-4593.1296750010888" sparseCutoff="1.0000000000000000"/>
      <sparseX i="16" alpha="-1957.0016312297114" sparseCutoff="1.0000000000000000"/>
      <sparseX i="17" alpha="-5923.6775386342169" sparseCutoff="1.0000000000000000"/>
      <sparseX i="18" alpha="-977.15533797373735" sparseCutoff="1.0000000000000000"/>
      <sparseX i="19" alpha="10274.011627885522" sparseCutoff=".41973999773777015"/>
      <sparseX i="20" alpha="-3877.5942735729627" sparseCutoff="1.0000000000000000"/>
      <sparseX i="21" alpha="-4770.3108718860385" sparseCutoff=".94301252823638082"/>
      <sparseX i="22" alpha="5438.3933611425118" sparseCutoff="1.0000000000000000"/>
      <sparseX i="23" alpha="4492.1422168382496" sparseCutoff="1.0000000000000000"/>
      <sparseX i="24" alpha="-7683.4034802399892" sparseCutoff="1.0000000000000000"/>
      <sparseX i="25" alpha="-389.47950792234553" sparseCutoff="1.0000000000000000"/>
      <sparseX i="26" alpha="-7306.5043131422908" sparseCutoff="1.0000000000000000"/>
      <sparseX i="27" alpha="6785.9776779403855" sparseCutoff="1.0000000000000000"/>
      <sparseX i="28" alpha="5876.0931029002750" sparseCutoff="1.0000000000000000"/>
      <sparseX i="29" alpha="-6743.2293538859349" sparseCutoff="1.0000000000000000"/>
      <sparseX i="30" alpha="5203.8889528917498" sparseCutoff="1.0000000000000000"/>
      <sparseX i="31" alpha="4609.9763292109847" sparseCutoff=".57674937979521723E-001"/>
      <sparseX i="32" alpha="262.40956868263675" sparseCutoff="1.0000000000000000"/>
      <sparseX i="33" alpha="2519.9215659578367" sparseCutoff="1.0000000000000000"/>
      <sparseX i="34" alpha="6386.2262552431666" sparseCutoff="1.0000000000000000"/>
      <sparseX i="35" alpha="1616.3164367691018" sparseCutoff="1.0000000000000000"/>
      <sparseX i="36" alpha="-6521.6633219421137" sparseCutoff="1.0000000000000000"/>
      <sparseX i="37" alpha="8062.7239713018735" sparseCutoff=".55179010816152074"/>
      <sparseX i="38" alpha="2846.6467893320955" sparseCutoff=".73937185621254309"/>
      <sparseX i="39" alpha="9869.9111893108930" sparseCutoff=".45207406372908193"/>
      <sparseX i="40" alpha="-4066.8936789235991" sparseCutoff="1.0000000000000000"/>
      <sparseX i="41" alpha="6445.2400819387012" sparseCutoff="1.0000000000000000"/>
      <sparseX i="42" alpha="-5835.4279101507909" sparseCutoff="1.0000000000000000"/>
      <sparseX i="43" alpha="4138.9895914611598" sparseCutoff="1.0000000000000000"/>
      <sparseX i="44" alpha="-5366.1523340898275" sparseCutoff="1.0000000000000000"/>
      <sparseX i="45" alpha="6691.1781584210112" sparseCutoff="1.0000000000000000"/>
      <sparseX i="46" alpha="-6315.0511922582546" sparseCutoff="1.0000000000000000"/>
      <sparseX i="47" alpha="2993.3318035643006" sparseCutoff="1.0000000000000000"/>
      <sparseX i="48" alpha="-7226.1719921187032" sparseCutoff="1.0000000000000000"/>
      <sparseX i="49" alpha="-7597.4650793660803" sparseCutoff="1.0000000000000000"/>
      <sparseX i="50" alpha="-7158.6074513875192" sparseCutoff="1.0000000000000000"/>
      <sparseX i="51" alpha="-287.23224699934491" sparseCutoff="1.0000000000000000"/>
      <sparseX i="52" alpha="-1041.2517472980492" sparseCutoff="1.0000000000000000"/>
      <sparseX i="53" alpha="9999.4507228775037" sparseCutoff=".21232698764930069"/>
      <sparseX i="54" alpha="5800.6707455028882" sparseCutoff=".64235644756267873"/>
      <sparseX i="55" alpha="6262.8099002284980" sparseCutoff="1.0000000000000000"/>
      <sparseX i="56" alpha="-7059.4969517658001" sparseCutoff="1.0000000000000000"/>
      <sparseX i="57" alpha="4324.0396714587923" sparseCutoff="1.0000000000000000"/>
      <sparseX i="58" alpha="6627.2194610266679" sparseCutoff="1.0000000000000000"/>
      <sparseX i="59" alpha="-7731.6809439449589" sparseCutoff="1.0000000000000000"/>
      <sparseX i="60" alpha="9023.0504542395429" sparseCutoff=".16583848208379376"/>
      <sparseX i="61" alpha="-5739.8435780222826" sparseCutoff=".96547318156914297"/>
      <sparseX i="62" alpha="10792.054821384207" sparseCutoff=".29387726230997507"/>
      <sparseX i="63" alpha="-2033.3376774295987" sparseCutoff="1.0000000000000000"/>
      <sparseX i="64" alpha="530.44298300938249" sparseCutoff="1.0000000000000000"/>
      <sparseX i="65" alpha="1564.0982579836689" sparseCutoff=".15606534755746637E-001"/>
      <sparseX i="66" alpha="2050.5380569571917" sparseCutoff="1.0000000000000000"/>
      <sparseX i="67" alpha="7086.0143096691936" sparseCutoff=".10728622132901461"/>
      <sparseX i="68" alpha="-4539.6557230832004" sparseCutoff="1.0000000000000000"/>
      <sparseX i="69" alpha="6780.2854130880387" sparseCutoff="1.0000000000000000"/>
      <sparseX i="70" alpha="-7454.3509488131958" sparseCutoff=".99903887544785974"/>
      <sparseX i="71" alpha="177.13732735578819" sparseCutoff=".15136772192576586E-002"/>
      <sparseX i="72" alpha="3874.5260301962958" sparseCutoff="1.0000000000000000"/>
      <sparseX i="73" alpha="3688.7754346429510" sparseCutoff="1.0000000000000000"/>
      <sparseX i="74" alpha="5469.3415416033795" sparseCutoff="1.0000000000000000"/>
      <sparseX i="75" alpha="-4351.7162570310666" sparseCutoff="1.0000000000000000"/>
      <sparseX i="76" alpha="5891.4729145351021" sparseCutoff="1.0000000000000000"/>
      <sparseX i="77" alpha="-3880.7660127573572" sparseCutoff="1.0000000000000000"/>
      <sparseX i="78" alpha="-5543.0768430132266" sparseCutoff="1.0000000000000000"/>
      <sparseX i="79" alpha="6772.1600260844243" sparseCutoff="1.0000000000000000"/>
      <sparseX i="80" alpha="3873.0155320021372" sparseCutoff=".45963604026083793E-001"/>
      <sparseX i="81" alpha="-7325.4232936291783" sparseCutoff=".99739016408874259"/>
      <sparseX i="82" alpha="2776.1667753427419" sparseCutoff="1.0000000000000000"/>
      <sparseX i="83" alpha="-2880.3494344862065" sparseCutoff="1.0000000000000000"/>
      <sparseX i="84" alpha="36.203214976201153" sparseCutoff=".29800067568108712E-003"/>
      <sparseX i="85" alpha="-7252.6771055671834" sparseCutoff="1.0000000000000000"/>
      <sparseX i="86" alpha="6113.7365114505028" sparseCutoff="1.0000000000000000"/>
      <sparseX i="87" alpha="-6922.6714407582385" sparseCutoff="1.0000000000000000"/>
      <sparseX i="88" alpha="-1676.9395877604309" sparseCutoff="1.0000000000000000"/>
      <sparseX i="89" alpha="274.91185782799943" sparseCutoff="1.0000000000000000"/>
      <sparseX i="90" alpha="-982.50905551892799" sparseCutoff="1.0000000000000000"/>
      <sparseX i="91" alpha="-6967.1389170501589" sparseCutoff="1.0000000000000000"/>
      <sparseX i="92" alpha="11841.364666276711" sparseCutoff="1.0000000000000000"/>
      <sparseX i="93" alpha="9469.9104501929214" sparseCutoff="1.0000000000000000"/>
      <sparseX i="94" alpha="-4851.2479447058568" sparseCutoff="1.0000000000000000"/>
      <sparseX i="95" alpha="-2651.7829110553548" sparseCutoff="1.0000000000000000"/>
      <sparseX i="96" alpha="17514.982234662373" sparseCutoff="1.0000000000000000"/>
      <sparseX i="97" alpha="5856.8792798259356" sparseCutoff="1.0000000000000000"/>
      <sparseX i="98" alpha="2343.9948120446697" sparseCutoff="1.0000000000000000"/>
      <sparseX i="99" alpha="-3013.1229165477457" sparseCutoff=".90009314675377705"/>
      <sparseX i="100" alpha="3412.5981007101273" sparseCutoff="1.0000000000000000"/>
    </gpCoordinates>
    <gpCoordinates label="GAP_2021_9_2_60_19_36_43_4452" dimensions="1" signal_variance="1.0000000000000000" signal_mean=".00000000000000000E+000" sparsified="T" n_permutations="1" covariance_type="1" n_sparseX="100" sparseX_filename="TiAl.xml.sparseX.GAP_2021_9_2_60_19_36_43_4452" sparseX_md5sum="c023417b5914856452d42599b9d3ecbc">
      <theta>  0.25000000000000000E+001 </theta>
      <descriptor>distance_Nb order=2 cutoff=3.5 n_sparse=100 covariance_type=ard_se delta=1.0 theta_uniform=2.5 sparse_method=uniform compact_clusters=T Z={13 22 }</descriptor>
      <permutation i="1">1  </permutation>
      <sparseX i="1" alpha="665.08726314069304" sparseCutoff="1.0000000000000000"/>
      <sparseX i="2" alpha="981.50961148430144" sparseCutoff="1.0000000000000000"/>
      <sparseX i="3" alpha="1862.0745875625516" sparseCutoff=".96615437209957900"/>
      <sparseX i="4" alpha="-913.04364160398711" sparseCutoff=".31105542868038127E-001"/>
      <sparseX i="5" alpha="1721.2157105555646" sparseCutoff="1.0000000000000000"/>
      <sparseX i="6" alpha="-2632.7032410753895" sparseCutoff=".16500078355127334"/>
      <sparseX i="7" alpha="-2896.0257279147822" sparseCutoff=".25422338095693331"/>
      <sparseX i="8" alpha="1688.0375351060989" sparseCutoff=".93337657038812272"/>
      <sparseX i="9" alpha="-768.39053854703707" sparseCutoff="1.0000000000000000"/>
      <sparseX i="10" alpha="-964.94521553985032" sparseCutoff="1.0000000000000000"/>
      <sparseX i="11" alpha="602.67113622288127" sparseCutoff="1.0000000000000000"/>
      <sparseX i="12" alpha="499.77579655919453" sparseCutoff="1.0000000000000000"/>
      <sparseX i="13" alpha="-1364.2750044048209" sparseCutoff="1.0000000000000000"/>
      <sparseX i="14" alpha="-2841.9724177681210" sparseCutoff=".21639989349587252"/>
      <sparseX i="15" alpha="1114.0153024278338" sparseCutoff="1.0000000000000000"/>
      <sparseX i="16" alpha="531.70759146733781" sparseCutoff="1.0000000000000000"/>
      <sparseX i="17" alpha="-1713.5698590991626" sparseCutoff=".73377468654050981E-001"/>
      <sparseX i="18" alpha="1241.4637164527210" sparseCutoff=".87227731433222155"/>
      <sparseX i="19" alpha="-538.02403571001037" sparseCutoff=".67117766637665133"/>
      <sparseX i="20" alpha="-1125.6741545509481" sparseCutoff="1.0000000000000000"/>
      <sparseX i="21" alpha="-1177.3515562037426" sparseCutoff="1.0000000000000000"/>
      <sparseX i="22" alpha="-2882.8301038625118" sparseCutoff=".29006600977908725"/>
      <sparseX i="23" alpha="-2449.7566036703934" sparseCutoff=".41733086391822632"/>
      <sparseX i="24" alpha="-79.241987170622778" sparseCutoff="1.0000000000000000"/>
      <sparseX i="25" alpha="-1376.5939134999001" sparseCutoff="1.0000000000000000"/>
      <sparseX i="26" alpha="-2186.0852179495641" sparseCutoff=".11008377588706980"/>
      <sparseX i="27" alpha="-974.51804718141216" sparseCutoff=".33771312140800813E-001"/>
      <sparseX i="28" alpha="-533.72286287731026" sparseCutoff="1.0000000000000000"/>
      <sparseX i="29" alpha="-1191.7511582703332" sparseCutoff="1.0000000000000000"/>
      <sparseX i="30" alpha="211.21036886389490" sparseCutoff=".75404821426032742"/>
      <sparseX i="31" alpha="-771.14084560115089" sparseCutoff=".64485047972684884"/>
      <sparseX i="32" alpha="892.24806805831520" sparseCutoff=".83055675282499086"/>
      <sparseX i="33" alpha="-1369.5479446745553" sparseCutoff="1.0000000000000000"/>
      <sparseX i="34" alpha="1886.6659625431969" sparseCutoff=".99533395158830396"/>
      <sparseX i="35" alpha="-1277.8232761415995" sparseCutoff="1.0000000000000000"/>
      <sparseX i="36" alpha="-2033.3356943601439" sparseCutoff=".48583513838635156"/>
      <sparseX i="37" alpha="-2897.8394205574045" sparseCutoff=".25985310467878431"/>
      <sparseX i="38" alpha="-2482.7440406558826" sparseCutoff=".14264173484796255"/>
      <sparseX i="39" alpha="-543.42919066759248" sparseCutoff="1.0000000000000000"/>
      <sparseX i="40" alpha="1634.8532538725387" sparseCutoff="1.0000000000000000"/>
      <sparseX i="41" alpha="-2762.9582974636478" sparseCutoff=".34438515302138129"/>
      <sparseX i="42" alpha="-1380.1825120082567" sparseCutoff="1.0000000000000000"/>
      <sparseX i="43" alpha="-1351.8356675484542" sparseCutoff="1.0000000000000000"/>
      <sparseX i="44" alpha="-75.002856007395991" sparseCutoff=".19185867419094782E-002"/>
      <sparseX i="45" alpha="927.67861111197431" sparseCutoff=".83466974798672444"/>
      <sparseX i="46" alpha="1069.2839184100667" sparseCutoff="1.0000000000000000"/>
      <sparseX i="47" alpha="1293.0892269973056" sparseCutoff="1.0000000000000000"/>
      <sparseX i="48" alpha="-396.35588724116184" sparseCutoff="1.0000000000000000"/>
      <sparseX i="49" alpha="1904.1645879161351" sparseCutoff=".98002206643955248"/>
      <sparseX i="50" alpha="210.07690773564181" sparseCutoff="1.0000000000000000"/>
      <sparseX i="51" alpha="-1343.9722873457633" sparseCutoff="1.0000000000000000"/>
      <sparseX i="52" alpha="-1348.4803505537593" sparseCutoff=".51860776298019440E-001"/>
      <sparseX i="53" alpha="-1099.4240915307678" sparseCutoff="1.0000000000000000"/>
      <sparseX i="54" alpha="-1300.3497758415078" sparseCutoff="1.0000000000000000"/>
      <sparseX i="55" alpha="433.76434708210593" sparseCutoff=".77868486927959735"/>
      <sparseX i="56" alpha="337.45859680699573" sparseCutoff="1.0000000000000000"/>
      <sparseX i="57" alpha="-1891.9257247396311" sparseCutoff=".85762533037389455E-001"/>
      <sparseX i="58" alpha="-1397.2743132899145" sparseCutoff=".57084916255923557"/>
      <sparseX i="59" alpha="-1003.3376938044393" sparseCutoff="1.0000000000000000"/>
      <sparseX i="60" alpha="-895.14582630790869" sparseCutoff="1.0000000000000000"/>
      <sparseX i="61" alpha="156.30416565164646" sparseCutoff="1.0000000000000000"/>
      <sparseX i="62" alpha="-1274.6431477272229" sparseCutoff="1.0000000000000000"/>
      <sparseX i="63" alpha="-173.64963654596005" sparseCutoff="1.0000000000000000"/>
      <sparseX i="64" alpha="1113.3077422385436" sparseCutoff="1.0000000000000000"/>
      <sparseX i="65" alpha="-989.36401431221122" sparseCutoff=".61971753466825652"/>
      <sparseX i="66" alpha="1379.2359726278346" sparseCutoff=".88975341816907783"/>
      <sparseX i="67" alpha="-2686.4625809370727" sparseCutoff=".36602056556702567"/>
      <sparseX i="68" alpha="1895.3446455640355" sparseCutoff=".99386581973363541"/>
      <sparseX i="69" alpha="-1303.7082010263020" sparseCutoff="1.0000000000000000"/>
      <sparseX i="70" alpha="1804.5272259975488" sparseCutoff=".95362906728388119"/>
      <sparseX i="71" alpha="1053.9445999355826" sparseCutoff="1.0000000000000000"/>
      <sparseX i="72" alpha="1560.2587039438392" sparseCutoff="1.0000000000000000"/>
      <sparseX i="73" alpha="-680.53370707590580" sparseCutoff="1.0000000000000000"/>
      <sparseX i="74" alpha="39.293426883816721" sparseCutoff="1.0000000000000000"/>
      <sparseX i="75" alpha="-786.66624668317911" sparseCutoff="1.0000000000000000"/>
      <sparseX i="76" alpha="-178.57522761372539" sparseCutoff="1.0000000000000000"/>
      <sparseX i="77" alpha="-1778.8518220918709" sparseCutoff=".52166434699346187"/>
      <sparseX i="78" alpha="1598.1993615488120" sparseCutoff=".91971657541518415"/>
      <sparseX i="79" alpha="1833.8953561952737" sparseCutoff=".99920321565101666"/>
      <sparseX i="80" alpha="233.45658865725548" sparseCutoff="1.0000000000000000"/>
      <sparseX i="81" alpha="-451.76230392326482" sparseCutoff=".13450995142471112E-001"/>
      <sparseX i="82" alpha="-892.94486218992972" sparseCutoff="1.0000000000000000"/>
      <sparseX i="83" alpha="-295.75898385785388" sparseCutoff=".83537480080592696E-002"/>
      <sparseX i="84" alpha="1448.7450222258883" sparseCutoff="1.0000000000000000"/>
      <sparseX i="85" alpha="-376.91309973351952" sparseCutoff="1.0000000000000000"/>
      <sparseX i="86" alpha="-2205.8226317003864" sparseCutoff=".45941826785645001"/>
      <sparseX i="87" alpha="816.74993321740851" sparseCutoff="1.0000000000000000"/>
      <sparseX i="88" alpha="136.88781050479969" sparseCutoff="1.0000000000000000"/>
      <sparseX i="89" alpha="-316.12923050902151" sparseCutoff="1.0000000000000000"/>
      <sparseX i="90" alpha="735.99958965899953" sparseCutoff="1.0000000000000000"/>
      <sparseX i="91" alpha="-1025.5478182132240" sparseCutoff="1.0000000000000000"/>
      <sparseX i="92" alpha="-7.0959048046704636" sparseCutoff=".17060521403433615E-003"/>
      <sparseX i="93" alpha="-702.50741059105212" sparseCutoff="1.0000000000000000"/>
      <sparseX i="94" alpha="-283.39770407127901" sparseCutoff="1.0000000000000000"/>
      <sparseX i="95" alpha="985.68566255750704" sparseCutoff="1.0000000000000000"/>
      <sparseX i="96" alpha="1095.6686073328117" sparseCutoff="1.0000000000000000"/>
      <sparseX i="97" alpha="-65.909031854337300" sparseCutoff=".72352100470998959"/>
      <sparseX i="98" alpha="723.06736139226132" sparseCutoff="1.0000000000000000"/>
      <sparseX i="99" alpha="954.40884210195395" sparseCutoff="1.0000000000000000"/>
      <sparseX i="100" alpha="1079.3457559820681" sparseCutoff="1.0000000000000000"/>
    </gpCoordinates>
    <gpCoordinates label="GAP_2021_9_2_60_19_36_43_4453" dimensions="1" signal_variance="1.0000000000000000" signal_mean=".00000000000000000E+000" sparsified="T" n_permutations="2" covariance_type="1" n_sparseX="100" sparseX_filename="TiAl.xml.sparseX.GAP_2021_9_2_60_19_36_43_4453" sparseX_md5sum="254adc1fe78fddb156baaa7a5a52bc05">
      <theta>  0.25000000000000000E+001 </theta>
      <descriptor>distance_Nb order=2 cutoff=3.5 n_sparse=100 covariance_type=ard_se delta=1.0 theta_uniform=2.5 sparse_method=uniform compact_clusters=T Z={22 22 }</descriptor>
      <permutation i="1">1  </permutation>
      <permutation i="2">1  </permutation>
      <sparseX i="1" alpha="1502.6368543528533" sparseCutoff="1.0000000000000000"/>
      <sparseX i="2" alpha="4580.1800795448680" sparseCutoff=".98368862704741888"/>
      <sparseX i="3" alpha="-2437.1371789128857" sparseCutoff="1.0000000000000000"/>
      <sparseX i="4" alpha="-423.44664301064063" sparseCutoff="1.0000000000000000"/>
      <sparseX i="5" alpha="240.34616272362558" sparseCutoff="1.0000000000000000"/>
      <sparseX i="6" alpha="2720.5237423302096" sparseCutoff="1.0000000000000000"/>
      <sparseX i="7" alpha="-3192.4038797752014" sparseCutoff="1.0000000000000000"/>
      <sparseX i="8" alpha="2873.5095678904454" sparseCutoff=".85279151036827372"/>
      <sparseX i="9" alpha="4390.1802434706569" sparseCutoff=".95191474731132120"/>
      <sparseX i="10" alpha="2027.0444534856495" sparseCutoff="1.0000000000000000"/>
      <sparseX i="11" alpha="-3568.0820750566263" sparseCutoff="1.0000000000000000"/>
      <sparseX i="12" alpha="-1979.9521984356320" sparseCutoff="1.0000000000000000"/>
      <sparseX i="13" alpha="-3226.9927614373782" sparseCutoff=".54551057981319262E-001"/>
      <sparseX i="14" alpha="4536.6449159258100" sparseCutoff=".96944731464380685"/>
      <sparseX i="15" alpha="-6454.2215730427852" sparseCutoff=".24010509680366882"/>
      <sparseX i="16" alpha="-3406.2088119455093" sparseCutoff="1.0000000000000000"/>
      <sparseX i="17" alpha="1185.0831856969767" sparseCutoff=".76632906566494563"/>
      <sparseX i="18" alpha="340.64548745434587" sparseCutoff="1.0000000000000000"/>
      <sparseX i="19" alpha="99.506886549873400" sparseCutoff="1.0000000000000000"/>
      <sparseX i="20" alpha="-2900.1230187907609" sparseCutoff="1.0000000000000000"/>
      <sparseX i="21" alpha="-416.84262120825952" sparseCutoff=".68840127179717681"/>
      <sparseX i="22" alpha="-3556.5523303599921" sparseCutoff="1.0000000000000000"/>
      <sparseX i="23" alpha="-2975.9353244840077" sparseCutoff="1.0000000000000000"/>
      <sparseX i="24" alpha="-935.87011766002365" sparseCutoff="1.0000000000000000"/>
      <sparseX i="25" alpha="4331.1297468972571" sparseCutoff=".99928424293231366"/>
      <sparseX i="26" alpha="-5216.1095418822797" sparseCutoff=".42160024727762307"/>
      <sparseX i="27" alpha="-2431.6124422390303" sparseCutoff=".37149078544838787E-001"/>
      <sparseX i="28" alpha="-4159.4614081837171" sparseCutoff=".79966805282091713E-001"/>
      <sparseX i="29" alpha="-2216.6008426064864" sparseCutoff="1.0000000000000000"/>
      <sparseX i="30" alpha="-2357.5803359192860" sparseCutoff="1.0000000000000000"/>
      <sparseX i="31" alpha="4160.2841985013165" sparseCutoff=".93234725805434715"/>
      <sparseX i="32" alpha="-3131.9669364722899" sparseCutoff="1.0000000000000000"/>
      <sparseX i="33" alpha="-3385.2178373421721" sparseCutoff="1.0000000000000000"/>
      <sparseX i="34" alpha="1005.8534737376639" sparseCutoff="1.0000000000000000"/>
      <sparseX i="35" alpha="-1689.0035472361599" sparseCutoff="1.0000000000000000"/>
      <sparseX i="36" alpha="-6021.1458760384912" sparseCutoff=".34889548729550396"/>
      <sparseX i="37" alpha="-3573.9230786126705" sparseCutoff="1.0000000000000000"/>
      <sparseX i="38" alpha="-1079.9146343834043" sparseCutoff=".65603019893057712"/>
      <sparseX i="39" alpha="-198.24159680037150" sparseCutoff=".21759403516333764E-002"/>
      <sparseX i="40" alpha="-1264.6738130336350" sparseCutoff="1.0000000000000000"/>
      <sparseX i="41" alpha="-6079.3473190574150" sparseCutoff=".17521377201194571"/>
      <sparseX i="42" alpha="3770.8147570366509" sparseCutoff=".90527799561282318"/>
      <sparseX i="43" alpha="-2567.0138084592631" sparseCutoff="1.0000000000000000"/>
      <sparseX i="44" alpha="-3339.2500081833459" sparseCutoff="1.0000000000000000"/>
      <sparseX i="45" alpha="-1385.0935996061899" sparseCutoff=".18516231521502780E-001"/>
      <sparseX i="46" alpha="-2736.4955110035253" sparseCutoff="1.0000000000000000"/>
      <sparseX i="47" alpha="134.27924154030671" sparseCutoff="1.0000000000000000"/>
      <sparseX i="48" alpha="-6453.9629872702099" sparseCutoff=".26690321390641192"/>
      <sparseX i="49" alpha="-2892.3659609879978" sparseCutoff=".56390131779591912"/>
      <sparseX i="50" alpha="-4459.5728776723727" sparseCutoff=".47364621271196489"/>
      <sparseX i="51" alpha="499.56179185443324" sparseCutoff=".73285659967323014"/>
      <sparseX i="52" alpha="-6330.2498885480463" sparseCutoff=".30423059313999395"/>
      <sparseX i="53" alpha="3997.9714006293293" sparseCutoff="1.0000000000000000"/>
      <sparseX i="54" alpha="3772.6102340797433" sparseCutoff="1.0000000000000000"/>
      <sparseX i="55" alpha="2488.3508548004033" sparseCutoff=".83219734799885292"/>
      <sparseX i="56" alpha="2315.3711133622332" sparseCutoff="1.0000000000000000"/>
      <sparseX i="57" alpha="3619.8081857961647" sparseCutoff=".89576489103713908"/>
      <sparseX i="58" alpha="4398.5089916521865" sparseCutoff=".99817322321568092"/>
      <sparseX i="59" alpha="2643.5387576957041" sparseCutoff="1.0000000000000000"/>
      <sparseX i="60" alpha="-488.16376277578291" sparseCutoff="1.0000000000000000"/>
      <sparseX i="61" alpha="3173.5477298176525" sparseCutoff="1.0000000000000000"/>
      <sparseX i="62" alpha="-30.581043345301396" sparseCutoff=".31589170336948635E-003"/>
      <sparseX i="63" alpha="-3497.0415149546002" sparseCutoff="1.0000000000000000"/>
      <sparseX i="64" alpha="-1582.8986297639462" sparseCutoff="1.0000000000000000"/>
      <sparseX i="65" alpha="-4829.1436574288455" sparseCutoff=".44932791498816610"/>
      <sparseX i="66" alpha="-1853.5827324194108" sparseCutoff=".61759612268784203"/>
      <sparseX i="67" alpha="3232.7919277043225" sparseCutoff="1.0000000000000000"/>
      <sparseX i="68" alpha="-896.56305125662527" sparseCutoff=".11192571385133354E-001"/>
      <sparseX i="69" alpha="-3417.1657524101920" sparseCutoff="1.0000000000000000"/>
      <sparseX i="70" alpha="-5532.9874497518558" sparseCutoff=".13618002565401199"/>
      <sparseX i="71" alpha="-4885.1526398833475" sparseCutoff=".10554626314744692"/>
      <sparseX i="72" alpha="698.86233771297304" sparseCutoff="1.0000000000000000"/>
      <sparseX i="73" alpha="-1211.2903132950678" sparseCutoff="1.0000000000000000"/>
      <sparseX i="74" alpha="3289.8350014455400" sparseCutoff="1.0000000000000000"/>
      <sparseX i="75" alpha="-2319.7588929837871" sparseCutoff="1.0000000000000000"/>
      <sparseX i="76" alpha="-779.61284734625144" sparseCutoff="1.0000000000000000"/>
      <sparseX i="77" alpha="954.07155945398745" sparseCutoff="1.0000000000000000"/>
      <sparseX i="78" alpha="2599.4624207043453" sparseCutoff="1.0000000000000000"/>
      <sparseX i="79" alpha="1305.4904019259247" sparseCutoff="1.0000000000000000"/>
      <sparseX i="80" alpha="3494.2261840862402" sparseCutoff="1.0000000000000000"/>
      <sparseX i="81" alpha="3325.9783491870271" sparseCutoff="1.0000000000000000"/>
      <sparseX i="82" alpha="2969.2815410519484" sparseCutoff="1.0000000000000000"/>
      <sparseX i="83" alpha="1915.0079926689511" sparseCutoff="1.0000000000000000"/>
      <sparseX i="84" alpha="-5813.0074051110869" sparseCutoff=".37092791567450267"/>
      <sparseX i="85" alpha="-6923.4883839635595" sparseCutoff="1.0000000000000000"/>
      <sparseX i="86" alpha="2200.5223574324277" sparseCutoff="1.0000000000000000"/>
      <sparseX i="87" alpha="-2028.9612563660619" sparseCutoff="1.0000000000000000"/>
      <sparseX i="88" alpha="1272.2326561845919" sparseCutoff="1.0000000000000000"/>
      <sparseX i="89" alpha="3504.8857927634749" sparseCutoff="1.0000000000000000"/>
      <sparseX i="90" alpha="2634.7519549761009" sparseCutoff="1.0000000000000000"/>
      <sparseX i="91" alpha="485.27749639258514" sparseCutoff="1.0000000000000000"/>
      <sparseX i="92" alpha="2262.8581015007030" sparseCutoff="1.0000000000000000"/>
      <sparseX i="93" alpha="3394.0100635244858" sparseCutoff="1.0000000000000000"/>
      <sparseX i="94" alpha="-1439.3079855037627" sparseCutoff="1.0000000000000000"/>
      <sparseX i="95" alpha="2903.2898929730200" sparseCutoff="1.0000000000000000"/>
      <sparseX i="96" alpha="-3380.6379577518105" sparseCutoff="1.0000000000000000"/>
      <sparseX i="97" alpha="1477.4760363577477" sparseCutoff="1.0000000000000000"/>
      <sparseX i="98" alpha="-8073.3133564026921" sparseCutoff="1.0000000000000000"/>
      <sparseX i="99" alpha="3515.1611634106575" sparseCutoff="1.0000000000000000"/>
      <sparseX i="100" alpha="-93.425003904251895" sparseCutoff="1.0000000000000000"/>
    </gpCoordinates>
    <gpCoordinates label="GAP_2021_9_2_60_19_36_43_4454" dimensions="953" signal_variance=".50000000000000003E-001" signal_mean=".00000000000000000E+000" sparsified="T" n_permutations="1" covariance_type="2" zeta="4.0000000000000000" n_sparseX="1206" sparseX_filename="TiAl.xml.sparseX.GAP_2021_9_2_60_19_36_43_4454" sparseX_md5sum="92080d788c2f152367ea9316f2d18a03">
      <descriptor> soap l_max=6 n_max=8 atom_sigma=0.5 zeta=4 cutoff=6 cutoff_transition_width=0.5 central_weight=1.0 n_sparse=2400 delta=0.05 covariance_type=dot_product sparse_method=cur_points n_species=2 Z=13 species_Z={13 22 }</descriptor>
      <permutation i="1">1  </permutation>
      <sparseX i="1" alpha="1512.5459696602827" sparseCutoff="1.0000000000000000"/>
      <sparseX i="2" alpha="1394.9455132514997" sparseCutoff="1.0000000000000000"/>
      <sparseX i="3" alpha="1954.4219146529065" sparseCutoff="1.0000000000000000"/>
      <sparseX i="4" alpha="2351.6510382976057" sparseCutoff="1.0000000000000000"/>
      <sparseX i="5" alpha="1119.4745338604432" sparseCutoff="1.0000000000000000"/>
      <sparseX i="6" alpha="1351.9743708677006" sparseCutoff="1.0000000000000000"/>
      <sparseX i="7" alpha="2211.1054690093879" sparseCutoff="1.0000000000000000"/>
      <sparseX i="8" alpha="2422.2968422222921" sparseCutoff="1.0000000000000000"/>
      <sparseX i="9" alpha="-672.20102431170687" sparseCutoff="1.0000000000000000"/>
      <sparseX i="10" alpha="21.109729419781011" sparseCutoff="1.0000000000000000"/>
      <sparseX i="11" alpha="-621.13916728111644" sparseCutoff="1.0000000000000000"/>
      <sparseX i="12" alpha="-492.05955043556474" sparseCutoff="1.0000000000000000"/>
      <sparseX i="13" alpha="-805.16074783409795" sparseCutoff="1.0000000000000000"/>
      <sparseX i="14" alpha="-594.31503584797201" sparseCutoff="1.0000000000000000"/>
      <sparseX i="15" alpha="-770.49031192716529" sparseCutoff="1.0000000000000000"/>
      <sparseX i="16" alpha="-642.45478010216038" sparseCutoff="1.0000000000000000"/>
      <sparseX i="17" alpha="1605.2952865000191" sparseCutoff="1.0000000000000000"/>
      <sparseX i="18" alpha="430.83492968096812" sparseCutoff="1.0000000000000000"/>
      <sparseX i="19" alpha="-9.7524895892963777" sparseCutoff="1.0000000000000000"/>
      <sparseX i="20" alpha="290.94206030555739" sparseCutoff="1.0000000000000000"/>
      <sparseX i="21" alpha="378.91910595606612" sparseCutoff="1.0000000000000000"/>
      <sparseX i="22" alpha="427.10002234961075" sparseCutoff="1.0000000000000000"/>
      <sparseX i="23" alpha="4396.4919688012078" sparseCutoff="1.0000000000000000"/>
      <sparseX i="24" alpha="515.13335398813138" sparseCutoff="1.0000000000000000"/>
      <sparseX i="25" alpha="508.25103747969445" sparseCutoff="1.0000000000000000"/>
      <sparseX i="26" alpha="4386.1880201340264" sparseCutoff="1.0000000000000000"/>
      <sparseX i="27" alpha="-1467.7178132445840" sparseCutoff="1.0000000000000000"/>
      <sparseX i="28" alpha="-64.598942435753415" sparseCutoff="1.0000000000000000"/>
      <sparseX i="29" alpha="-60.988616940640689" sparseCutoff="1.0000000000000000"/>
      <sparseX i="30" alpha="71.391572103940604" sparseCutoff="1.0000000000000000"/>
      <sparseX i="31" alpha="-202.90694801462143" sparseCutoff="1.0000000000000000"/>
      <sparseX i="32" alpha="71.915472015115057" sparseCutoff="1.0000000000000000"/>
      <sparseX i="33" alpha="-397.67062695671370" sparseCutoff="1.0000000000000000"/>
      <sparseX i="34" alpha="-196.61068206390433" sparseCutoff="1.0000000000000000"/>
      <sparseX i="35" alpha="-307.42596122211563" sparseCutoff="1.0000000000000000"/>
      <sparseX i="36" alpha="43.448236162686783" sparseCutoff="1.0000000000000000"/>
      <sparseX i="37" alpha="-23.196209278262529" sparseCutoff="1.0000000000000000"/>
      <sparseX i="38" alpha="139.35715034882230" sparseCutoff="1.0000000000000000"/>
      <sparseX i="39" alpha="207.92937205620274" sparseCutoff="1.0000000000000000"/>
      <sparseX i="40" alpha="-124.90054109886545" sparseCutoff="1.0000000000000000"/>
      <sparseX i="41" alpha="-499.38527508950369" sparseCutoff="1.0000000000000000"/>
      <sparseX i="42" alpha="-26.666236305000698" sparseCutoff="1.0000000000000000"/>
      <sparseX i="43" alpha="-541.98318372104495" sparseCutoff="1.0000000000000000"/>
      <sparseX i="44" alpha="-39.479741537202862" sparseCutoff="1.0000000000000000"/>
      <sparseX i="45" alpha="-117.41721898657983" sparseCutoff="1.0000000000000000"/>
      <sparseX i="46" alpha="73.129506886820195" sparseCutoff="1.0000000000000000"/>
      <sparseX i="47" alpha="-7.0668842029068140" sparseCutoff="1.0000000000000000"/>
      <sparseX i="48" alpha="-267.08126509212764" sparseCutoff="1.0000000000000000"/>
      <sparseX i="49" alpha="113.16864889249959" sparseCutoff="1.0000000000000000"/>
      <sparseX i="50" alpha="-590.45842581137867" sparseCutoff="1.0000000000000000"/>
      <sparseX i="51" alpha="186.68734617653075" sparseCutoff="1.0000000000000000"/>
      <sparseX i="52" alpha="272.73017946878321" sparseCutoff="1.0000000000000000"/>
      <sparseX i="53" alpha="25.358403317989303" sparseCutoff="1.0000000000000000"/>
      <sparseX i="54" alpha="-158.98982099919269" sparseCutoff="1.0000000000000000"/>
      <sparseX i="55" alpha="193.16874080486528" sparseCutoff="1.0000000000000000"/>
      <sparseX i="56" alpha="-29.803719426877620" sparseCutoff="1.0000000000000000"/>
      <sparseX i="57" alpha="-482.45232323091727" sparseCutoff="1.0000000000000000"/>
      <sparseX i="58" alpha="210.68145161557661" sparseCutoff="1.0000000000000000"/>
      <sparseX i="59" alpha="-302.95081181238709" sparseCutoff="1.0000000000000000"/>
      <sparseX i="60" alpha="-7.5644687266192658" sparseCutoff="1.0000000000000000"/>
      <sparseX i="61" alpha="55.714161267735939" sparseCutoff="1.0000000000000000"/>
      <sparseX i="62" alpha="-79.469189770162984" sparseCutoff="1.0000000000000000"/>
      <sparseX i="63" alpha="-385.16057919899902" sparseCutoff="1.0000000000000000"/>
      <sparseX i="64" alpha="-254.82843482785651" sparseCutoff="1.0000000000000000"/>
      <sparseX i="65" alpha="-109.80911445361477" sparseCutoff="1.0000000000000000"/>
      <sparseX i="66" alpha="-416.79797628640523" sparseCutoff="1.0000000000000000"/>
      <sparseX i="67" alpha="-252.22560086851115" sparseCutoff="1.0000000000000000"/>
      <sparseX i="68" alpha="108.90767711042220" sparseCutoff="1.0000000000000000"/>
      <sparseX i="69" alpha="419.30050103081089" sparseCutoff="1.0000000000000000"/>
      <sparseX i="70" alpha="-309.87281217700286" sparseCutoff="1.0000000000000000"/>
      <sparseX i="71" alpha="161.93407538319656" sparseCutoff="1.0000000000000000"/>
      <sparseX i="72" alpha="155.88711377215793" sparseCutoff="1.0000000000000000"/>
      <sparseX i="73" alpha="-140.87959602720244" sparseCutoff="1.0000000000000000"/>
      <sparseX i="74" alpha="-286.25436060514323" sparseCutoff="1.0000000000000000"/>
      <sparseX i="75" alpha="-102.37405626261769" sparseCutoff="1.0000000000000000"/>
      <sparseX i="76" alpha="-120.46288729446489" sparseCutoff="1.0000000000000000"/>
      <sparseX i="77" alpha="-181.74961216928514" sparseCutoff="1.0000000000000000"/>
      <sparseX i="78" alpha="-320.49197724578954" sparseCutoff="1.0000000000000000"/>
      <sparseX i="79" alpha="83.319295709897006" sparseCutoff="1.0000000000000000"/>
      <sparseX i="80" alpha="-141.00543474295728" sparseCutoff="1.0000000000000000"/>
      <sparseX i="81" alpha="-53.240301364349548" sparseCutoff="1.0000000000000000"/>
      <sparseX i="82" alpha="-315.32722019135383" sparseCutoff="1.0000000000000000"/>
      <sparseX i="83" alpha="-176.29581261068941" sparseCutoff="1.0000000000000000"/>
      <sparseX i="84" alpha="331.63590106960328" sparseCutoff="1.0000000000000000"/>
      <sparseX i="85" alpha="123.63712150130769" sparseCutoff="1.0000000000000000"/>
      <sparseX i="86" alpha="-419.55762523247665" sparseCutoff="1.0000000000000000"/>
      <sparseX i="87" alpha="3.0927793751714847" sparseCutoff="1.0000000000000000"/>
      <sparseX i="88" alpha="-339.41729096493327" sparseCutoff="1.0000000000000000"/>
      <sparseX i="89" alpha="-202.76577462037972" sparseCutoff="1.0000000000000000"/>
      <sparseX i="90" alpha="-41.572378062268399" sparseCutoff="1.0000000000000000"/>
      <sparseX i="91" alpha="-93.106276476491914" sparseCutoff="1.0000000000000000"/>
      <sparseX i="92" alpha="1052.3761133406572" sparseCutoff="1.0000000000000000"/>
      <sparseX i="93" alpha="2036.2612873487299" sparseCutoff="1.0000000000000000"/>
      <sparseX i="94" alpha="1802.6177554381063" sparseCutoff="1.0000000000000000"/>
      <sparseX i="95" alpha="711.27938510846127" sparseCutoff="1.0000000000000000"/>
      <sparseX i="96" alpha="-1643.9888773109778" sparseCutoff="1.0000000000000000"/>
      <sparseX i="97" alpha="-1741.5315091080845" sparseCutoff="1.0000000000000000"/>
      <sparseX i="98" alpha="-1463.8661547543193" sparseCutoff="1.0000000000000000"/>
      <sparseX i="99" alpha="-1318.9314719547042" sparseCutoff="1.0000000000000000"/>
      <sparseX i="100" alpha="-363.35690030960922" sparseCutoff="1.0000000000000000"/>
      <sparseX i="101" alpha="-447.55825366739253" sparseCutoff="1.0000000000000000"/>
      <sparseX i="102" alpha="225.62298901838577" sparseCutoff="1.0000000000000000"/>
      <sparseX i="103" alpha="1307.8002051459548" sparseCutoff="1.0000000000000000"/>
      <sparseX i="104" alpha="-893.15569157252844" sparseCutoff="1.0000000000000000"/>
      <sparseX i="105" alpha="-488.17296770664132" sparseCutoff="1.0000000000000000"/>
      <sparseX i="106" alpha="-607.58126590001859" sparseCutoff="1.0000000000000000"/>
      <sparseX i="107" alpha="-1032.8234728419111" sparseCutoff="1.0000000000000000"/>
      <sparseX i="108" alpha="-1021.8092665252577" sparseCutoff="1.0000000000000000"/>
      <sparseX i="109" alpha="-533.65224875136926" sparseCutoff="1.0000000000000000"/>
      <sparseX i="110" alpha="-326.40925108207466" sparseCutoff="1.0000000000000000"/>
      <sparseX i="111" alpha="-290.39235940109558" sparseCutoff="1.0000000000000000"/>
      <sparseX i="112" alpha="-587.79353156107675" sparseCutoff="1.0000000000000000"/>
      <sparseX i="113" alpha="-532.72509201299658" sparseCutoff="1.0000000000000000"/>
      <sparseX i="114" alpha="-558.52967670574265" sparseCutoff="1.0000000000000000"/>
      <sparseX i="115" alpha="-537.20224099947995" sparseCutoff="1.0000000000000000"/>
      <sparseX i="116" alpha="-538.53884491699580" sparseCutoff="1.0000000000000000"/>
      <sparseX i="117" alpha="-537.12908586968217" sparseCutoff="1.0000000000000000"/>
      <sparseX i="118" alpha="-514.13345793065810" sparseCutoff="1.0000000000000000"/>
      <sparseX i="119" alpha="-559.34674670171444" sparseCutoff="1.0000000000000000"/>
      <sparseX i="120" alpha="-458.31618041021062" sparseCutoff="1.0000000000000000"/>
      <sparseX i="121" alpha="-613.04648966279569" sparseCutoff="1.0000000000000000"/>
      <sparseX i="122" alpha="-537.51886287679417" sparseCutoff="1.0000000000000000"/>
      <sparseX i="123" alpha="-535.25846125932844" sparseCutoff="1.0000000000000000"/>
      <sparseX i="124" alpha="-280.28327989962997" sparseCutoff="1.0000000000000000"/>
      <sparseX i="125" alpha="200.97138166251185" sparseCutoff="1.0000000000000000"/>
      <sparseX i="126" alpha="-310.93194507588203" sparseCutoff="1.0000000000000000"/>
      <sparseX i="127" alpha="-516.36878454496537" sparseCutoff="1.0000000000000000"/>
      <sparseX i="128" alpha="-278.95036409970010" sparseCutoff="1.0000000000000000"/>
      <sparseX i="129" alpha="-348.53856407818728" sparseCutoff="1.0000000000000000"/>
      <sparseX i="130" alpha="23.171455491197879" sparseCutoff="1.0000000000000000"/>
      <sparseX i="131" alpha="-475.01345557356689" sparseCutoff="1.0000000000000000"/>
      <sparseX i="132" alpha="-257.43692574721882" sparseCutoff="1.0000000000000000"/>
      <sparseX i="133" alpha="-147.00865166035541" sparseCutoff="1.0000000000000000"/>
      <sparseX i="134" alpha="184.41004681015281" sparseCutoff="1.0000000000000000"/>
      <sparseX i="135" alpha="-388.19595461648964" sparseCutoff="1.0000000000000000"/>
      <sparseX i="136" alpha="-433.47950930892961" sparseCutoff="1.0000000000000000"/>
      <sparseX i="137" alpha="185.83511849969238" sparseCutoff="1.0000000000000000"/>
      <sparseX i="138" alpha="-609.23886958370019" sparseCutoff="1.0000000000000000"/>
      <sparseX i="139" alpha="-236.10408100351253" sparseCutoff="1.0000000000000000"/>
      <sparseX i="140" alpha="174.47318666514897" sparseCutoff="1.0000000000000000"/>
      <sparseX i="141" alpha="-165.45893100960345" sparseCutoff="1.0000000000000000"/>
      <sparseX i="142" alpha="-378.53215343389547" sparseCutoff="1.0000000000000000"/>
      <sparseX i="143" alpha="-608.08843732213279" sparseCutoff="1.0000000000000000"/>
      <sparseX i="144" alpha="-163.64020638543653" sparseCutoff="1.0000000000000000"/>
      <sparseX i="145" alpha="-137.41084610633010" sparseCutoff="1.0000000000000000"/>
      <sparseX i="146" alpha="-333.70408488316667" sparseCutoff="1.0000000000000000"/>
      <sparseX i="147" alpha="-183.78764448613103" sparseCutoff="1.0000000000000000"/>
      <sparseX i="148" alpha="2.3564147800767579" sparseCutoff="1.0000000000000000"/>
      <sparseX i="149" alpha="-520.06595729847061" sparseCutoff="1.0000000000000000"/>
      <sparseX i="150" alpha="-3.0239956646019670" sparseCutoff="1.0000000000000000"/>
      <sparseX i="151" alpha="-778.66760288494106" sparseCutoff="1.0000000000000000"/>
      <sparseX i="152" alpha="951.81363461659805" sparseCutoff="1.0000000000000000"/>
      <sparseX i="153" alpha="812.55204600491572" sparseCutoff="1.0000000000000000"/>
      <sparseX i="154" alpha="769.26495164995765" sparseCutoff="1.0000000000000000"/>
      <sparseX i="155" alpha="832.90217824484978" sparseCutoff="1.0000000000000000"/>
      <sparseX i="156" alpha="-57.548196075395957" sparseCutoff="1.0000000000000000"/>
      <sparseX i="157" alpha="-41.368046906368967" sparseCutoff="1.0000000000000000"/>
      <sparseX i="158" alpha="-61.803170642991653" sparseCutoff="1.0000000000000000"/>
      <sparseX i="159" alpha="-665.36185440174188" sparseCutoff="1.0000000000000000"/>
      <sparseX i="160" alpha="-673.48040540724855" sparseCutoff="1.0000000000000000"/>
      <sparseX i="161" alpha="2632.8719487727139" sparseCutoff="1.0000000000000000"/>
      <sparseX i="162" alpha="2423.3027049559118" sparseCutoff="1.0000000000000000"/>
      <sparseX i="163" alpha="3113.1589411151626" sparseCutoff="1.0000000000000000"/>
      <sparseX i="164" alpha="2860.6155124632801" sparseCutoff="1.0000000000000000"/>
      <sparseX i="165" alpha="1258.8081437545975" sparseCutoff="1.0000000000000000"/>
      <sparseX i="166" alpha="1074.0065221699317" sparseCutoff="1.0000000000000000"/>
      <sparseX i="167" alpha="1031.1162298260633" sparseCutoff="1.0000000000000000"/>
      <sparseX i="168" alpha="-1486.2864922003489" sparseCutoff="1.0000000000000000"/>
      <sparseX i="169" alpha="383.89468269253007" sparseCutoff="1.0000000000000000"/>
      <sparseX i="170" alpha="264.13813072518298" sparseCutoff="1.0000000000000000"/>
      <sparseX i="171" alpha="274.77651540713680" sparseCutoff="1.0000000000000000"/>
      <sparseX i="172" alpha="543.70315671545598" sparseCutoff="1.0000000000000000"/>
      <sparseX i="173" alpha="-502.51848649598384" sparseCutoff="1.0000000000000000"/>
      <sparseX i="174" alpha="878.31129411479537" sparseCutoff="1.0000000000000000"/>
      <sparseX i="175" alpha="-299.30019734947183" sparseCutoff="1.0000000000000000"/>
      <sparseX i="176" alpha="-888.62893968577941" sparseCutoff="1.0000000000000000"/>
      <sparseX i="177" alpha="-43.390868704340733" sparseCutoff="1.0000000000000000"/>
      <sparseX i="178" alpha="8.7996257055618141" sparseCutoff="1.0000000000000000"/>
      <sparseX i="179" alpha="36.736730213260437" sparseCutoff="1.0000000000000000"/>
      <sparseX i="180" alpha="61.440134111097770" sparseCutoff="1.0000000000000000"/>
      <sparseX i="181" alpha="-407.83119789340816" sparseCutoff="1.0000000000000000"/>
      <sparseX i="182" alpha="-183.94562327773934" sparseCutoff="1.0000000000000000"/>
      <sparseX i="183" alpha="-43.499142481537916" sparseCutoff="1.0000000000000000"/>
      <sparseX i="184" alpha="-345.07241466713373" sparseCutoff="1.0000000000000000"/>
      <sparseX i="185" alpha="14.573844551409026" sparseCutoff="1.0000000000000000"/>
      <sparseX i="186" alpha="221.30757047253232" sparseCutoff="1.0000000000000000"/>
      <sparseX i="187" alpha="16.047121391443600" sparseCutoff="1.0000000000000000"/>
      <sparseX i="188" alpha="24.276938872291584" sparseCutoff="1.0000000000000000"/>
      <sparseX i="189" alpha="-152.03138998965042" sparseCutoff="1.0000000000000000"/>
      <sparseX i="190" alpha="294.74065590591795" sparseCutoff="1.0000000000000000"/>
      <sparseX i="191" alpha="-124.66572111460327" sparseCutoff="1.0000000000000000"/>
      <sparseX i="192" alpha="3.6680193371204775" sparseCutoff="1.0000000000000000"/>
      <sparseX i="193" alpha="12.636995769078412" sparseCutoff="1.0000000000000000"/>
      <sparseX i="194" alpha="-956.69445674607937" sparseCutoff="1.0000000000000000"/>
      <sparseX i="195" alpha="-148.67669662583916" sparseCutoff="1.0000000000000000"/>
      <sparseX i="196" alpha="-198.04093326642223" sparseCutoff="1.0000000000000000"/>
      <sparseX i="197" alpha="-421.57855471121434" sparseCutoff="1.0000000000000000"/>
      <sparseX i="198" alpha="178.04223935656313" sparseCutoff="1.0000000000000000"/>
      <sparseX i="199" alpha="-82.844930656669561" sparseCutoff="1.0000000000000000"/>
      <sparseX i="200" alpha="-538.73309028942947" sparseCutoff="1.0000000000000000"/>
      <sparseX i="201" alpha="-918.64015771037577" sparseCutoff="1.0000000000000000"/>
      <sparseX i="202" alpha="-9355.5262728277576" sparseCutoff="1.0000000000000000"/>
      <sparseX i="203" alpha="291.28676559263556" sparseCutoff="1.0000000000000000"/>
      <sparseX i="204" alpha="59.179888285883138" sparseCutoff="1.0000000000000000"/>
      <sparseX i="205" alpha="25.628868317887179" sparseCutoff="1.0000000000000000"/>
      <sparseX i="206" alpha="835.13798125832204" sparseCutoff="1.0000000000000000"/>
      <sparseX i="207" alpha="46.744629832280765" sparseCutoff="1.0000000000000000"/>
      <sparseX i="208" alpha="9444.0526560262279" sparseCutoff="1.0000000000000000"/>
      <sparseX i="209" alpha="-1018.0085485025447" sparseCutoff="1.0000000000000000"/>
      <sparseX i="210" alpha="1529.1045700942730" sparseCutoff="1.0000000000000000"/>
      <sparseX i="211" alpha="-1135.9703856883762" sparseCutoff="1.0000000000000000"/>
      <sparseX i="212" alpha="54.249998591234238" sparseCutoff="1.0000000000000000"/>
      <sparseX i="213" alpha="24.226524801175302" sparseCutoff="1.0000000000000000"/>
      <sparseX i="214" alpha="657.34604851386916" sparseCutoff="1.0000000000000000"/>
      <sparseX i="215" alpha="82.211279798520835" sparseCutoff="1.0000000000000000"/>
      <sparseX i="216" alpha="144.47244709369667" sparseCutoff="1.0000000000000000"/>
      <sparseX i="217" alpha="-224.91440358352889" sparseCutoff="1.0000000000000000"/>
      <sparseX i="218" alpha="-66.936043652278656" sparseCutoff="1.0000000000000000"/>
      <sparseX i="219" alpha="91.257450438462811" sparseCutoff="1.0000000000000000"/>
      <sparseX i="220" alpha="354.04360613752453" sparseCutoff="1.0000000000000000"/>
      <sparseX i="221" alpha="425.65210499450296" sparseCutoff="1.0000000000000000"/>
      <sparseX i="222" alpha="-3.8080717008468090" sparseCutoff="1.0000000000000000"/>
      <sparseX i="223" alpha="-473.52195564954809" sparseCutoff="1.0000000000000000"/>
      <sparseX i="224" alpha="692.15063326103677" sparseCutoff="1.0000000000000000"/>
      <sparseX i="225" alpha="418.22707480945184" sparseCutoff="1.0000000000000000"/>
      <sparseX i="226" alpha="-17.683557166417483" sparseCutoff="1.0000000000000000"/>
      <sparseX i="227" alpha="102.04468728824355" sparseCutoff="1.0000000000000000"/>
      <sparseX i="228" alpha="-112.25338674602578" sparseCutoff="1.0000000000000000"/>
      <sparseX i="229" alpha="-118.95280319282375" sparseCutoff="1.0000000000000000"/>
      <sparseX i="230" alpha="-147.53732399332787" sparseCutoff="1.0000000000000000"/>
      <sparseX i="231" alpha="-251.68199900359843" sparseCutoff="1.0000000000000000"/>
      <sparseX i="232" alpha="-39.149686316441908" sparseCutoff="1.0000000000000000"/>
      <sparseX i="233" alpha="196.96113511094009" sparseCutoff="1.0000000000000000"/>
      <sparseX i="234" alpha="-314.47326441538320" sparseCutoff="1.0000000000000000"/>
      <sparseX i="235" alpha="-212.30321027874845" sparseCutoff="1.0000000000000000"/>
      <sparseX i="236" alpha="99.360943587312121" sparseCutoff="1.0000000000000000"/>
      <sparseX i="237" alpha="-60.172728744089000" sparseCutoff="1.0000000000000000"/>
      <sparseX i="238" alpha="-454.20724882859042" sparseCutoff="1.0000000000000000"/>
      <sparseX i="239" alpha="6.4099556593402394" sparseCutoff="1.0000000000000000"/>
      <sparseX i="240" alpha="-156.38166295022381" sparseCutoff="1.0000000000000000"/>
      <sparseX i="241" alpha="-84.749807349369860" sparseCutoff="1.0000000000000000"/>
      <sparseX i="242" alpha="127.15086737499446" sparseCutoff="1.0000000000000000"/>
      <sparseX i="243" alpha="-147.88158587821860" sparseCutoff="1.0000000000000000"/>
      <sparseX i="244" alpha="60.679176914748695" sparseCutoff="1.0000000000000000"/>
      <sparseX i="245" alpha="-60.951185514868165" sparseCutoff="1.0000000000000000"/>
      <sparseX i="246" alpha="175.34180278434448" sparseCutoff="1.0000000000000000"/>
      <sparseX i="247" alpha="-156.53564975490374" sparseCutoff="1.0000000000000000"/>
      <sparseX i="248" alpha="536.16869276511318" sparseCutoff="1.0000000000000000"/>
      <sparseX i="249" alpha="-170.72272935122555" sparseCutoff="1.0000000000000000"/>
      <sparseX i="250" alpha="-67.047566000844043" sparseCutoff="1.0000000000000000"/>
      <sparseX i="251" alpha="-23.602022873271583" sparseCutoff="1.0000000000000000"/>
      <sparseX i="252" alpha="415.82228131368083" sparseCutoff="1.0000000000000000"/>
      <sparseX i="253" alpha="95.497825785557964" sparseCutoff="1.0000000000000000"/>
      <sparseX i="254" alpha="253.41187135938276" sparseCutoff="1.0000000000000000"/>
      <sparseX i="255" alpha="-397.97039883217610" sparseCutoff="1.0000000000000000"/>
      <sparseX i="256" alpha="-497.73956882987886" sparseCutoff="1.0000000000000000"/>
      <sparseX i="257" alpha="263.75545910728420" sparseCutoff="1.0000000000000000"/>
      <sparseX i="258" alpha="-177.80050142871642" sparseCutoff="1.0000000000000000"/>
      <sparseX i="259" alpha="-307.67450797986783" sparseCutoff="1.0000000000000000"/>
      <sparseX i="260" alpha="216.54570711765905" sparseCutoff="1.0000000000000000"/>
      <sparseX i="261" alpha="350.82718134168198" sparseCutoff="1.0000000000000000"/>
      <sparseX i="262" alpha="58.566508466561302" sparseCutoff="1.0000000000000000"/>
      <sparseX i="263" alpha="-78.966355078811205" sparseCutoff="1.0000000000000000"/>
      <sparseX i="264" alpha="217.68304325919874" sparseCutoff="1.0000000000000000"/>
      <sparseX i="265" alpha="254.77396759941468" sparseCutoff="1.0000000000000000"/>
      <sparseX i="266" alpha="-67.835914269810900" sparseCutoff="1.0000000000000000"/>
      <sparseX i="267" alpha="376.35939694201221" sparseCutoff="1.0000000000000000"/>
      <sparseX i="268" alpha="902.95841740183062" sparseCutoff="1.0000000000000000"/>
      <sparseX i="269" alpha="255.71703240612331" sparseCutoff="1.0000000000000000"/>
      <sparseX i="270" alpha="404.61093887061065" sparseCutoff="1.0000000000000000"/>
      <sparseX i="271" alpha="-46.072877827437395" sparseCutoff="1.0000000000000000"/>
      <sparseX i="272" alpha="474.98218693642372" sparseCutoff="1.0000000000000000"/>
      <sparseX i="273" alpha="106.39022952979030" sparseCutoff="1.0000000000000000"/>
      <sparseX i="274" alpha="-474.86725612166475" sparseCutoff="1.0000000000000000"/>
      <sparseX i="275" alpha="-165.48865704137694" sparseCutoff="1.0000000000000000"/>
      <sparseX i="276" alpha="-915.14889216722372" sparseCutoff="1.0000000000000000"/>
      <sparseX i="277" alpha="-2470.1215868170211" sparseCutoff="1.0000000000000000"/>
      <sparseX i="278" alpha="893.15971150035818" sparseCutoff="1.0000000000000000"/>
      <sparseX i="279" alpha="1001.4429660739150" sparseCutoff="1.0000000000000000"/>
      <sparseX i="280" alpha="1252.4796799115513" sparseCutoff="1.0000000000000000"/>
      <sparseX i="281" alpha="1282.8648177610903" sparseCutoff="1.0000000000000000"/>
      <sparseX i="282" alpha="-916.28390738179235" sparseCutoff="1.0000000000000000"/>
      <sparseX i="283" alpha="-1113.1846473642775" sparseCutoff="1.0000000000000000"/>
      <sparseX i="284" alpha="-821.49835983472212" sparseCutoff="1.0000000000000000"/>
      <sparseX i="285" alpha="-62.754000127255765" sparseCutoff="1.0000000000000000"/>
      <sparseX i="286" alpha="110.59674955089433" sparseCutoff="1.0000000000000000"/>
      <sparseX i="287" alpha="1707.8893645817730" sparseCutoff="1.0000000000000000"/>
      <sparseX i="288" alpha="492.16155672423514" sparseCutoff="1.0000000000000000"/>
      <sparseX i="289" alpha="82.784658566468309" sparseCutoff="1.0000000000000000"/>
      <sparseX i="290" alpha="-568.88764199407603" sparseCutoff="1.0000000000000000"/>
      <sparseX i="291" alpha="264.05004022542226" sparseCutoff="1.0000000000000000"/>
      <sparseX i="292" alpha="-387.51988859083463" sparseCutoff="1.0000000000000000"/>
      <sparseX i="293" alpha="85.834236713994443" sparseCutoff="1.0000000000000000"/>
      <sparseX i="294" alpha="-2382.6210854611736" sparseCutoff="1.0000000000000000"/>
      <sparseX i="295" alpha="11.904483668831254" sparseCutoff="1.0000000000000000"/>
      <sparseX i="296" alpha="-676.34012740285118" sparseCutoff="1.0000000000000000"/>
      <sparseX i="297" alpha="1067.8651902734880" sparseCutoff="1.0000000000000000"/>
      <sparseX i="298" alpha="149.47465243599319" sparseCutoff="1.0000000000000000"/>
      <sparseX i="299" alpha="-13.774763869079834" sparseCutoff="1.0000000000000000"/>
      <sparseX i="300" alpha="1106.4712423800172" sparseCutoff="1.0000000000000000"/>
      <sparseX i="301" alpha="-1002.4581767151200" sparseCutoff="1.0000000000000000"/>
      <sparseX i="302" alpha="144.69993010686764" sparseCutoff="1.0000000000000000"/>
      <sparseX i="303" alpha="-1473.5042150604206" sparseCutoff="1.0000000000000000"/>
      <sparseX i="304" alpha="463.71479362834657" sparseCutoff="1.0000000000000000"/>
      <sparseX i="305" alpha="-2838.8646447037513" sparseCutoff="1.0000000000000000"/>
      <sparseX i="306" alpha="1473.4937435242721" sparseCutoff="1.0000000000000000"/>
      <sparseX i="307" alpha="291.58447121731990" sparseCutoff="1.0000000000000000"/>
      <sparseX i="308" alpha="-3099.6718370789372" sparseCutoff="1.0000000000000000"/>
      <sparseX i="309" alpha="-522.04048988873888" sparseCutoff="1.0000000000000000"/>
      <sparseX i="310" alpha="1433.9683977379814" sparseCutoff="1.0000000000000000"/>
      <sparseX i="311" alpha="-1000.4491777571260" sparseCutoff="1.0000000000000000"/>
      <sparseX i="312" alpha="-341.00257478473725" sparseCutoff="1.0000000000000000"/>
      <sparseX i="313" alpha="-1362.2597100751127" sparseCutoff="1.0000000000000000"/>
      <sparseX i="314" alpha="-207.76025131930194" sparseCutoff="1.0000000000000000"/>
      <sparseX i="315" alpha="58.536203920901308" sparseCutoff="1.0000000000000000"/>
      <sparseX i="316" alpha="-28.180641885735390" sparseCutoff="1.0000000000000000"/>
      <sparseX i="317" alpha="-489.53102488532568" sparseCutoff="1.0000000000000000"/>
      <sparseX i="318" alpha="509.29187826222011" sparseCutoff="1.0000000000000000"/>
      <sparseX i="319" alpha="174.56552023349767" sparseCutoff="1.0000000000000000"/>
      <sparseX i="320" alpha="-365.66280374421643" sparseCutoff="1.0000000000000000"/>
      <sparseX i="321" alpha="-348.91655001921345" sparseCutoff="1.0000000000000000"/>
      <sparseX i="322" alpha="-470.06577307464198" sparseCutoff="1.0000000000000000"/>
      <sparseX i="323" alpha="-1296.4233621186850" sparseCutoff="1.0000000000000000"/>
      <sparseX i="324" alpha="-1013.3807011072320" sparseCutoff="1.0000000000000000"/>
      <sparseX i="325" alpha="-643.70722071710384" sparseCutoff="1.0000000000000000"/>
      <sparseX i="326" alpha="-1976.3742857997538" sparseCutoff="1.0000000000000000"/>
      <sparseX i="327" alpha="535.82487932376227" sparseCutoff="1.0000000000000000"/>
      <sparseX i="328" alpha="267.84078117318109" sparseCutoff="1.0000000000000000"/>
      <sparseX i="329" alpha="-782.52515554268166" sparseCutoff="1.0000000000000000"/>
      <sparseX i="330" alpha="4857.5597321567302" sparseCutoff="1.0000000000000000"/>
      <sparseX i="331" alpha="-1108.0279590387818" sparseCutoff="1.0000000000000000"/>
      <sparseX i="332" alpha="-2711.2058817405764" sparseCutoff="1.0000000000000000"/>
      <sparseX i="333" alpha="551.83020666998652" sparseCutoff="1.0000000000000000"/>
      <sparseX i="334" alpha="-422.51590901831736" sparseCutoff="1.0000000000000000"/>
      <sparseX i="335" alpha="-1159.9978395316436" sparseCutoff="1.0000000000000000"/>
      <sparseX i="336" alpha="-884.18784995359385" sparseCutoff="1.0000000000000000"/>
      <sparseX i="337" alpha="826.27341456519639" sparseCutoff="1.0000000000000000"/>
      <sparseX i="338" alpha="-731.64544990056436" sparseCutoff="1.0000000000000000"/>
      <sparseX i="339" alpha="-272.85554008565606" sparseCutoff="1.0000000000000000"/>
      <sparseX i="340" alpha="-1171.5102289830627" sparseCutoff="1.0000000000000000"/>
      <sparseX i="341" alpha="-480.85135964109799" sparseCutoff="1.0000000000000000"/>
      <sparseX i="342" alpha="-1707.4981114514192" sparseCutoff="1.0000000000000000"/>
      <sparseX i="343" alpha="-552.10732452830030" sparseCutoff="1.0000000000000000"/>
      <sparseX i="344" alpha="128.95439997861988" sparseCutoff="1.0000000000000000"/>
      <sparseX i="345" alpha="-122.89307888932292" sparseCutoff="1.0000000000000000"/>
      <sparseX i="346" alpha="-525.66942003009342" sparseCutoff="1.0000000000000000"/>
      <sparseX i="347" alpha="224.10276072839036" sparseCutoff="1.0000000000000000"/>
      <sparseX i="348" alpha="-4.7214475523055963" sparseCutoff="1.0000000000000000"/>
      <sparseX i="349" alpha="1220.4523305643370" sparseCutoff="1.0000000000000000"/>
      <sparseX i="350" alpha="-304.49126866014376" sparseCutoff="1.0000000000000000"/>
      <sparseX i="351" alpha="-1562.6958758828534" sparseCutoff="1.0000000000000000"/>
      <sparseX i="352" alpha="-152.25869922678658" sparseCutoff="1.0000000000000000"/>
      <sparseX i="353" alpha="-1483.9615602968374" sparseCutoff="1.0000000000000000"/>
      <sparseX i="354" alpha="-1239.9522831025936" sparseCutoff="1.0000000000000000"/>
      <sparseX i="355" alpha="401.67480028564938" sparseCutoff="1.0000000000000000"/>
      <sparseX i="356" alpha="175.10870875216898" sparseCutoff="1.0000000000000000"/>
      <sparseX i="357" alpha="-179.41287772700426" sparseCutoff="1.0000000000000000"/>
      <sparseX i="358" alpha="-704.72530735731209" sparseCutoff="1.0000000000000000"/>
      <sparseX i="359" alpha="-1272.8437025809556" sparseCutoff="1.0000000000000000"/>
      <sparseX i="360" alpha="197.29716615993647" sparseCutoff="1.0000000000000000"/>
      <sparseX i="361" alpha="-1036.7706248610511" sparseCutoff="1.0000000000000000"/>
      <sparseX i="362" alpha="-376.85939155443026" sparseCutoff="1.0000000000000000"/>
      <sparseX i="363" alpha="-281.90974070865713" sparseCutoff="1.0000000000000000"/>
      <sparseX i="364" alpha="-61.946056247131260" sparseCutoff="1.0000000000000000"/>
      <sparseX i="365" alpha="-1165.1559466769174" sparseCutoff="1.0000000000000000"/>
      <sparseX i="366" alpha="-589.41554063879028" sparseCutoff="1.0000000000000000"/>
      <sparseX i="367" alpha="-34.622417776517523" sparseCutoff="1.0000000000000000"/>
      <sparseX i="368" alpha="580.26702759109992" sparseCutoff="1.0000000000000000"/>
      <sparseX i="369" alpha="-1603.3461290916246" sparseCutoff="1.0000000000000000"/>
      <sparseX i="370" alpha="-2143.2232931301369" sparseCutoff="1.0000000000000000"/>
      <sparseX i="371" alpha="-602.55567598740970" sparseCutoff="1.0000000000000000"/>
      <sparseX i="372" alpha="-1490.7786506854702" sparseCutoff="1.0000000000000000"/>
      <sparseX i="373" alpha="-1111.3015425809353" sparseCutoff="1.0000000000000000"/>
      <sparseX i="374" alpha="161.75032662819794" sparseCutoff="1.0000000000000000"/>
      <sparseX i="375" alpha="2471.2379278603430" sparseCutoff="1.0000000000000000"/>
      <sparseX i="376" alpha="-1281.0582875187970" sparseCutoff="1.0000000000000000"/>
      <sparseX i="377" alpha="-565.28318351748646" sparseCutoff="1.0000000000000000"/>
      <sparseX i="378" alpha="-141.86028670416226" sparseCutoff="1.0000000000000000"/>
      <sparseX i="379" alpha="-975.16038023678277" sparseCutoff="1.0000000000000000"/>
      <sparseX i="380" alpha="-827.32371535741788" sparseCutoff="1.0000000000000000"/>
      <sparseX i="381" alpha="-406.06045992532370" sparseCutoff="1.0000000000000000"/>
      <sparseX i="382" alpha="973.41249964896883" sparseCutoff="1.0000000000000000"/>
      <sparseX i="383" alpha="1675.5334874373359" sparseCutoff="1.0000000000000000"/>
      <sparseX i="384" alpha="-238.02687671025535" sparseCutoff="1.0000000000000000"/>
      <sparseX i="385" alpha="397.72909366262337" sparseCutoff="1.0000000000000000"/>
      <sparseX i="386" alpha="-388.92898610260704" sparseCutoff="1.0000000000000000"/>
      <sparseX i="387" alpha="-1155.4842957148271" sparseCutoff="1.0000000000000000"/>
      <sparseX i="388" alpha="-382.46256721839904" sparseCutoff="1.0000000000000000"/>
      <sparseX i="389" alpha="-737.35720933575033" sparseCutoff="1.0000000000000000"/>
      <sparseX i="390" alpha="-729.54367457869898" sparseCutoff="1.0000000000000000"/>
      <sparseX i="391" alpha="-959.82464293754447" sparseCutoff="1.0000000000000000"/>
      <sparseX i="392" alpha="-1131.4868382522022" sparseCutoff="1.0000000000000000"/>
      <sparseX i="393" alpha="160.53557213568953" sparseCutoff="1.0000000000000000"/>
      <sparseX i="394" alpha="-1394.4331064197620" sparseCutoff="1.0000000000000000"/>
      <sparseX i="395" alpha="-773.14729256182193" sparseCutoff="1.0000000000000000"/>
      <sparseX i="396" alpha="-1943.7248702310737" sparseCutoff="1.0000000000000000"/>
      <sparseX i="397" alpha="-2523.8835082804326" sparseCutoff="1.0000000000000000"/>
      <sparseX i="398" alpha="-1350.1811264602638" sparseCutoff="1.0000000000000000"/>
      <sparseX i="399" alpha="31.313375834035913" sparseCutoff="1.0000000000000000"/>
      <sparseX i="400" alpha="647.83550926407315" sparseCutoff="1.0000000000000000"/>
      <sparseX i="401" alpha="-2348.7982857543498" sparseCutoff="1.0000000000000000"/>
      <sparseX i="402" alpha="-1179.9055137025969" sparseCutoff="1.0000000000000000"/>
      <sparseX i="403" alpha="-1160.3137715558887" sparseCutoff="1.0000000000000000"/>
      <sparseX i="404" alpha="-1013.7077851624229" sparseCutoff="1.0000000000000000"/>
      <sparseX i="405" alpha="-1387.3277337113902" sparseCutoff="1.0000000000000000"/>
      <sparseX i="406" alpha="758.26526441211058" sparseCutoff="1.0000000000000000"/>
      <sparseX i="407" alpha="466.92396446119881" sparseCutoff="1.0000000000000000"/>
      <sparseX i="408" alpha="9314.9716984554252" sparseCutoff="1.0000000000000000"/>
      <sparseX i="409" alpha="570.76796746476282" sparseCutoff="1.0000000000000000"/>
      <sparseX i="410" alpha="-2329.5276331238647" sparseCutoff="1.0000000000000000"/>
      <sparseX i="411" alpha="-2725.5129063534523" sparseCutoff="1.0000000000000000"/>
      <sparseX i="412" alpha="-2307.0979436226912" sparseCutoff="1.0000000000000000"/>
      <sparseX i="413" alpha="579.57376840323604" sparseCutoff="1.0000000000000000"/>
      <sparseX i="414" alpha="-680.07405092428655" sparseCutoff="1.0000000000000000"/>
      <sparseX i="415" alpha="-1801.1052734978905" sparseCutoff="1.0000000000000000"/>
      <sparseX i="416" alpha="458.41157091229377" sparseCutoff="1.0000000000000000"/>
      <sparseX i="417" alpha="465.10436008828577" sparseCutoff="1.0000000000000000"/>
      <sparseX i="418" alpha="197.21926491861450" sparseCutoff="1.0000000000000000"/>
      <sparseX i="419" alpha="545.87821891236774" sparseCutoff="1.0000000000000000"/>
      <sparseX i="420" alpha="-27.906971829338012" sparseCutoff="1.0000000000000000"/>
      <sparseX i="421" alpha="1104.1539604909713" sparseCutoff="1.0000000000000000"/>
      <sparseX i="422" alpha="594.80487125646607" sparseCutoff="1.0000000000000000"/>
      <sparseX i="423" alpha="1165.9263329639789" sparseCutoff="1.0000000000000000"/>
      <sparseX i="424" alpha="666.65845518424101" sparseCutoff="1.0000000000000000"/>
      <sparseX i="425" alpha="1254.8316344566013" sparseCutoff="1.0000000000000000"/>
      <sparseX i="426" alpha="-7286.2072810547852" sparseCutoff="1.0000000000000000"/>
      <sparseX i="427" alpha="-2354.1166016066391" sparseCutoff="1.0000000000000000"/>
      <sparseX i="428" alpha="-732.07834204191022" sparseCutoff="1.0000000000000000"/>
      <sparseX i="429" alpha="1328.4894355665599" sparseCutoff="1.0000000000000000"/>
      <sparseX i="430" alpha="227.28569143536538" sparseCutoff="1.0000000000000000"/>
      <sparseX i="431" alpha="-3409.6993429575400" sparseCutoff="1.0000000000000000"/>
      <sparseX i="432" alpha="-3905.2404123996253" sparseCutoff="1.0000000000000000"/>
      <sparseX i="433" alpha="1451.1021222537229" sparseCutoff="1.0000000000000000"/>
      <sparseX i="434" alpha="1438.7764144795347" sparseCutoff="1.0000000000000000"/>
      <sparseX i="435" alpha="-3918.1277639228865" sparseCutoff="1.0000000000000000"/>
      <sparseX i="436" alpha="-4635.5886668670300" sparseCutoff="1.0000000000000000"/>
      <sparseX i="437" alpha="6727.5619938492946" sparseCutoff="1.0000000000000000"/>
      <sparseX i="438" alpha="-112.53877905969537" sparseCutoff="1.0000000000000000"/>
      <sparseX i="439" alpha="-157.69189130928689" sparseCutoff="1.0000000000000000"/>
      <sparseX i="440" alpha="-136.04136914663212" sparseCutoff="1.0000000000000000"/>
      <sparseX i="441" alpha="377.58193770254547" sparseCutoff="1.0000000000000000"/>
      <sparseX i="442" alpha="-1135.9088276435514" sparseCutoff="1.0000000000000000"/>
      <sparseX i="443" alpha="-64.148543433106596" sparseCutoff="1.0000000000000000"/>
      <sparseX i="444" alpha="-844.31084842388657" sparseCutoff="1.0000000000000000"/>
      <sparseX i="445" alpha="-603.13011670573439" sparseCutoff="1.0000000000000000"/>
      <sparseX i="446" alpha="-205.55710124249046" sparseCutoff="1.0000000000000000"/>
      <sparseX i="447" alpha="-1282.9217043765982" sparseCutoff="1.0000000000000000"/>
      <sparseX i="448" alpha="405.64479657733540" sparseCutoff="1.0000000000000000"/>
      <sparseX i="449" alpha="-262.37182710177444" sparseCutoff="1.0000000000000000"/>
      <sparseX i="450" alpha="-490.25627485578394" sparseCutoff="1.0000000000000000"/>
      <sparseX i="451" alpha="-624.36762129659189" sparseCutoff="1.0000000000000000"/>
      <sparseX i="452" alpha="473.39520063762376" sparseCutoff="1.0000000000000000"/>
      <sparseX i="453" alpha="-816.33248796949397" sparseCutoff="1.0000000000000000"/>
      <sparseX i="454" alpha="-38.634500227768171" sparseCutoff="1.0000000000000000"/>
      <sparseX i="455" alpha="-403.70203770616172" sparseCutoff="1.0000000000000000"/>
      <sparseX i="456" alpha="-1641.8173878497323" sparseCutoff="1.0000000000000000"/>
      <sparseX i="457" alpha="-567.81953590602541" sparseCutoff="1.0000000000000000"/>
      <sparseX i="458" alpha="183.33031999101465" sparseCutoff="1.0000000000000000"/>
      <sparseX i="459" alpha="-834.71295054174402" sparseCutoff="1.0000000000000000"/>
      <sparseX i="460" alpha="-888.74440282893954" sparseCutoff="1.0000000000000000"/>
      <sparseX i="461" alpha="-2166.4605198769518" sparseCutoff="1.0000000000000000"/>
      <sparseX i="462" alpha="-1283.0639012384092" sparseCutoff="1.0000000000000000"/>
      <sparseX i="463" alpha="-418.57012849624050" sparseCutoff="1.0000000000000000"/>
      <sparseX i="464" alpha="-734.01861536795752" sparseCutoff="1.0000000000000000"/>
      <sparseX i="465" alpha="-947.62525781544718" sparseCutoff="1.0000000000000000"/>
      <sparseX i="466" alpha="-735.44112515483448" sparseCutoff="1.0000000000000000"/>
      <sparseX i="467" alpha="-1349.5469064181066" sparseCutoff="1.0000000000000000"/>
      <sparseX i="468" alpha="-430.79733441450293" sparseCutoff="1.0000000000000000"/>
      <sparseX i="469" alpha="-298.63311343370310" sparseCutoff="1.0000000000000000"/>
      <sparseX i="470" alpha="143.34321261463015" sparseCutoff="1.0000000000000000"/>
      <sparseX i="471" alpha="1385.7039471171609" sparseCutoff="1.0000000000000000"/>
      <sparseX i="472" alpha="-482.12233674328940" sparseCutoff="1.0000000000000000"/>
      <sparseX i="473" alpha="-1180.0390374919227" sparseCutoff="1.0000000000000000"/>
      <sparseX i="474" alpha="-4449.2505467334850" sparseCutoff="1.0000000000000000"/>
      <sparseX i="475" alpha="-2456.8804097846655" sparseCutoff="1.0000000000000000"/>
      <sparseX i="476" alpha="-2456.4282737214330" sparseCutoff="1.0000000000000000"/>
      <sparseX i="477" alpha="350.42866730799579" sparseCutoff="1.0000000000000000"/>
      <sparseX i="478" alpha="211.91533381905111" sparseCutoff="1.0000000000000000"/>
      <sparseX i="479" alpha="-294.01124536210784" sparseCutoff="1.0000000000000000"/>
      <sparseX i="480" alpha="708.16825381997489" sparseCutoff="1.0000000000000000"/>
      <sparseX i="481" alpha="152.42762138782538" sparseCutoff="1.0000000000000000"/>
      <sparseX i="482" alpha="159.94262882650673" sparseCutoff="1.0000000000000000"/>
      <sparseX i="483" alpha="403.97652977684061" sparseCutoff="1.0000000000000000"/>
      <sparseX i="484" alpha="134.54907589947203" sparseCutoff="1.0000000000000000"/>
      <sparseX i="485" alpha="39.646644676683835" sparseCutoff="1.0000000000000000"/>
      <sparseX i="486" alpha="95.297913286227555" sparseCutoff="1.0000000000000000"/>
      <sparseX i="487" alpha="185.25137214576444" sparseCutoff="1.0000000000000000"/>
      <sparseX i="488" alpha="-27.164841816379070" sparseCutoff="1.0000000000000000"/>
      <sparseX i="489" alpha="-6.4651986616918720" sparseCutoff="1.0000000000000000"/>
      <sparseX i="490" alpha="420.96660674832782" sparseCutoff="1.0000000000000000"/>
      <sparseX i="491" alpha="626.88380076595763" sparseCutoff="1.0000000000000000"/>
      <sparseX i="492" alpha="255.60225916255007" sparseCutoff="1.0000000000000000"/>
      <sparseX i="493" alpha="150.43420366808994" sparseCutoff="1.0000000000000000"/>
      <sparseX i="494" alpha="178.01671985005297" sparseCutoff="1.0000000000000000"/>
      <sparseX i="495" alpha="283.49355206119765" sparseCutoff="1.0000000000000000"/>
      <sparseX i="496" alpha="1011.9403079942110" sparseCutoff="1.0000000000000000"/>
      <sparseX i="497" alpha="328.53133839089850" sparseCutoff="1.0000000000000000"/>
      <sparseX i="498" alpha="276.11998328663441" sparseCutoff="1.0000000000000000"/>
      <sparseX i="499" alpha="95.586469736504455" sparseCutoff="1.0000000000000000"/>
      <sparseX i="500" alpha="145.20763465589584" sparseCutoff="1.0000000000000000"/>
      <sparseX i="501" alpha="-451.01654273111194" sparseCutoff="1.0000000000000000"/>
      <sparseX i="502" alpha="-468.57241145273525" sparseCutoff="1.0000000000000000"/>
      <sparseX i="503" alpha="-378.33659959460755" sparseCutoff="1.0000000000000000"/>
      <sparseX i="504" alpha="-389.19897653633785" sparseCutoff="1.0000000000000000"/>
      <sparseX i="505" alpha="466.91841980953831" sparseCutoff="1.0000000000000000"/>
      <sparseX i="506" alpha="5843.7156354803283" sparseCutoff="1.0000000000000000"/>
      <sparseX i="507" alpha="-5750.7069864894720" sparseCutoff="1.0000000000000000"/>
      <sparseX i="508" alpha="42.252208852268012" sparseCutoff="1.0000000000000000"/>
      <sparseX i="509" alpha="-1779.7981152168918" sparseCutoff="1.0000000000000000"/>
      <sparseX i="510" alpha="1731.5366241297522" sparseCutoff="1.0000000000000000"/>
      <sparseX i="511" alpha="42.250903859404914" sparseCutoff="1.0000000000000000"/>
      <sparseX i="512" alpha="-1779.7994419407867" sparseCutoff="1.0000000000000000"/>
      <sparseX i="513" alpha="1731.5353156202209" sparseCutoff="1.0000000000000000"/>
      <sparseX i="514" alpha="-2616.4750828687634" sparseCutoff="1.0000000000000000"/>
      <sparseX i="515" alpha="-2178.9991839007002" sparseCutoff="1.0000000000000000"/>
      <sparseX i="516" alpha="-3011.6511326115397" sparseCutoff="1.0000000000000000"/>
      <sparseX i="517" alpha="-2610.0001215585503" sparseCutoff="1.0000000000000000"/>
      <sparseX i="518" alpha="-197.08594423481316" sparseCutoff="1.0000000000000000"/>
      <sparseX i="519" alpha="-1342.0132946068809" sparseCutoff="1.0000000000000000"/>
      <sparseX i="520" alpha="-2610.0014182283485" sparseCutoff="1.0000000000000000"/>
      <sparseX i="521" alpha="-197.08723817813211" sparseCutoff="1.0000000000000000"/>
      <sparseX i="522" alpha="-1342.0145854882210" sparseCutoff="1.0000000000000000"/>
      <sparseX i="523" alpha="2815.7245577821354" sparseCutoff="1.0000000000000000"/>
      <sparseX i="524" alpha="3035.4304060053728" sparseCutoff="1.0000000000000000"/>
      <sparseX i="525" alpha="2310.0843453985226" sparseCutoff="1.0000000000000000"/>
      <sparseX i="526" alpha="2658.9542227401671" sparseCutoff="1.0000000000000000"/>
      <sparseX i="527" alpha="1294.6078079023091" sparseCutoff="1.0000000000000000"/>
      <sparseX i="528" alpha="79.938159040067148" sparseCutoff="1.0000000000000000"/>
      <sparseX i="529" alpha="2658.9529594628366" sparseCutoff="1.0000000000000000"/>
      <sparseX i="530" alpha="1294.6064987548375" sparseCutoff="1.0000000000000000"/>
      <sparseX i="531" alpha="79.936839850725576" sparseCutoff="1.0000000000000000"/>
      <sparseX i="532" alpha="-818.72781699337497" sparseCutoff="1.0000000000000000"/>
      <sparseX i="533" alpha="3337.0445598640163" sparseCutoff="1.0000000000000000"/>
      <sparseX i="534" alpha="1465.0430976381713" sparseCutoff="1.0000000000000000"/>
      <sparseX i="535" alpha="3315.6700213756958" sparseCutoff="1.0000000000000000"/>
      <sparseX i="536" alpha="-3419.8698523003259" sparseCutoff="1.0000000000000000"/>
      <sparseX i="537" alpha="-694.75864439318320" sparseCutoff="1.0000000000000000"/>
      <sparseX i="538" alpha="-3272.5246584024667" sparseCutoff="1.0000000000000000"/>
      <sparseX i="539" alpha="-604.23944746082236" sparseCutoff="1.0000000000000000"/>
      <sparseX i="540" alpha="-1120.7397031419669" sparseCutoff="1.0000000000000000"/>
      <sparseX i="541" alpha="-476.34533168512769" sparseCutoff="1.0000000000000000"/>
      <sparseX i="542" alpha="173.00667849449744" sparseCutoff="1.0000000000000000"/>
      <sparseX i="543" alpha="4.0992857199739232" sparseCutoff="1.0000000000000000"/>
      <sparseX i="544" alpha="114.40215103415410" sparseCutoff="1.0000000000000000"/>
      <sparseX i="545" alpha="-141.15301061921872" sparseCutoff="1.0000000000000000"/>
      <sparseX i="546" alpha="282.95237045814309" sparseCutoff="1.0000000000000000"/>
      <sparseX i="547" alpha="383.28524432418340" sparseCutoff="1.0000000000000000"/>
      <sparseX i="548" alpha="-242.63780183908781" sparseCutoff="1.0000000000000000"/>
      <sparseX i="549" alpha="137.83042707018322" sparseCutoff="1.0000000000000000"/>
      <sparseX i="550" alpha="47.257664567092220" sparseCutoff="1.0000000000000000"/>
      <sparseX i="551" alpha="-77.156215150336038" sparseCutoff="1.0000000000000000"/>
      <sparseX i="552" alpha="30.349288395822516" sparseCutoff="1.0000000000000000"/>
      <sparseX i="553" alpha="804.72037800001465" sparseCutoff="1.0000000000000000"/>
      <sparseX i="554" alpha="-226.07323006262098" sparseCutoff="1.0000000000000000"/>
      <sparseX i="555" alpha="261.22136894922465" sparseCutoff="1.0000000000000000"/>
      <sparseX i="556" alpha="-175.06196036540541" sparseCutoff="1.0000000000000000"/>
      <sparseX i="557" alpha="380.44864073223562" sparseCutoff="1.0000000000000000"/>
      <sparseX i="558" alpha="-455.97910183180579" sparseCutoff="1.0000000000000000"/>
      <sparseX i="559" alpha="141.21115148599742" sparseCutoff="1.0000000000000000"/>
      <sparseX i="560" alpha="-70.314657703433568" sparseCutoff="1.0000000000000000"/>
      <sparseX i="561" alpha="368.21486023257938" sparseCutoff="1.0000000000000000"/>
      <sparseX i="562" alpha="160.30625225770908" sparseCutoff="1.0000000000000000"/>
      <sparseX i="563" alpha="-535.60412764334535" sparseCutoff="1.0000000000000000"/>
      <sparseX i="564" alpha="175.15056177070608" sparseCutoff="1.0000000000000000"/>
      <sparseX i="565" alpha="476.46726652896780" sparseCutoff="1.0000000000000000"/>
      <sparseX i="566" alpha="-269.42777963082489" sparseCutoff="1.0000000000000000"/>
      <sparseX i="567" alpha="87.746493512354434" sparseCutoff="1.0000000000000000"/>
      <sparseX i="568" alpha="-1667.6513701771407" sparseCutoff="1.0000000000000000"/>
      <sparseX i="569" alpha="-1626.3982784348423" sparseCutoff="1.0000000000000000"/>
      <sparseX i="570" alpha="-635.33593786174356" sparseCutoff="1.0000000000000000"/>
      <sparseX i="571" alpha="1713.7637030406220" sparseCutoff="1.0000000000000000"/>
      <sparseX i="572" alpha="222.06367623758092" sparseCutoff="1.0000000000000000"/>
      <sparseX i="573" alpha="655.73788536530867" sparseCutoff="1.0000000000000000"/>
      <sparseX i="574" alpha="313.81394415265453" sparseCutoff="1.0000000000000000"/>
      <sparseX i="575" alpha="499.46847210600345" sparseCutoff="1.0000000000000000"/>
      <sparseX i="576" alpha="396.21007455712515" sparseCutoff="1.0000000000000000"/>
      <sparseX i="577" alpha="1361.3340614909559" sparseCutoff="1.0000000000000000"/>
      <sparseX i="578" alpha="-839.19079692408684" sparseCutoff="1.0000000000000000"/>
      <sparseX i="579" alpha="-501.49029209048769" sparseCutoff="1.0000000000000000"/>
      <sparseX i="580" alpha="616.46360072497862" sparseCutoff="1.0000000000000000"/>
      <sparseX i="581" alpha="211.97809519847218" sparseCutoff="1.0000000000000000"/>
      <sparseX i="582" alpha="1103.2617184704795" sparseCutoff="1.0000000000000000"/>
      <sparseX i="583" alpha="-296.00962983044911" sparseCutoff="1.0000000000000000"/>
      <sparseX i="584" alpha="1176.0480299331332" sparseCutoff="1.0000000000000000"/>
      <sparseX i="585" alpha="-80.808192165165494" sparseCutoff="1.0000000000000000"/>
      <sparseX i="586" alpha="815.17979958571857" sparseCutoff="1.0000000000000000"/>
      <sparseX i="587" alpha="672.20531357826030" sparseCutoff="1.0000000000000000"/>
      <sparseX i="588" alpha="1449.2988557961771" sparseCutoff="1.0000000000000000"/>
      <sparseX i="589" alpha="362.96242112309767" sparseCutoff="1.0000000000000000"/>
      <sparseX i="590" alpha="266.71155316730159" sparseCutoff="1.0000000000000000"/>
      <sparseX i="591" alpha="-790.77364077245284" sparseCutoff="1.0000000000000000"/>
      <sparseX i="592" alpha="771.31223320216395" sparseCutoff="1.0000000000000000"/>
      <sparseX i="593" alpha="2945.0604317304492" sparseCutoff="1.0000000000000000"/>
      <sparseX i="594" alpha="728.11327867030491" sparseCutoff="1.0000000000000000"/>
      <sparseX i="595" alpha="1014.5127395715583" sparseCutoff="1.0000000000000000"/>
      <sparseX i="596" alpha="120.58627857844452" sparseCutoff="1.0000000000000000"/>
      <sparseX i="597" alpha="418.39359283208444" sparseCutoff="1.0000000000000000"/>
      <sparseX i="598" alpha="-620.42901375019289" sparseCutoff="1.0000000000000000"/>
      <sparseX i="599" alpha="842.26159685148286" sparseCutoff="1.0000000000000000"/>
      <sparseX i="600" alpha="410.69824972938306" sparseCutoff="1.0000000000000000"/>
      <sparseX i="601" alpha="317.56485449081094" sparseCutoff="1.0000000000000000"/>
      <sparseX i="602" alpha="378.57975497477008" sparseCutoff="1.0000000000000000"/>
      <sparseX i="603" alpha="255.07204950452629" sparseCutoff="1.0000000000000000"/>
      <sparseX i="604" alpha="498.08275067820705" sparseCutoff="1.0000000000000000"/>
      <sparseX i="605" alpha="241.92861474298931" sparseCutoff="1.0000000000000000"/>
      <sparseX i="606" alpha="2151.6356682207397" sparseCutoff="1.0000000000000000"/>
      <sparseX i="607" alpha="841.96263260001206" sparseCutoff="1.0000000000000000"/>
      <sparseX i="608" alpha="1566.7740562200122" sparseCutoff="1.0000000000000000"/>
      <sparseX i="609" alpha="-98.173790358637078" sparseCutoff="1.0000000000000000"/>
      <sparseX i="610" alpha="476.41775274520791" sparseCutoff="1.0000000000000000"/>
      <sparseX i="611" alpha="1129.5077888784760" sparseCutoff="1.0000000000000000"/>
      <sparseX i="612" alpha="407.73117737459830" sparseCutoff="1.0000000000000000"/>
      <sparseX i="613" alpha="749.20537193416897" sparseCutoff="1.0000000000000000"/>
      <sparseX i="614" alpha="-1255.5275375824428" sparseCutoff="1.0000000000000000"/>
      <sparseX i="615" alpha="350.00052655061177" sparseCutoff="1.0000000000000000"/>
      <sparseX i="616" alpha="376.56604607563503" sparseCutoff="1.0000000000000000"/>
      <sparseX i="617" alpha="-442.48593981283784" sparseCutoff="1.0000000000000000"/>
      <sparseX i="618" alpha="1385.9493100106649" sparseCutoff="1.0000000000000000"/>
      <sparseX i="619" alpha="760.80999239909954" sparseCutoff="1.0000000000000000"/>
      <sparseX i="620" alpha="622.27979631448056" sparseCutoff="1.0000000000000000"/>
      <sparseX i="621" alpha="-177.14284973444475" sparseCutoff="1.0000000000000000"/>
      <sparseX i="622" alpha="1748.2483816410556" sparseCutoff="1.0000000000000000"/>
      <sparseX i="623" alpha="1193.7968426564830" sparseCutoff="1.0000000000000000"/>
      <sparseX i="624" alpha="-770.11212433225114" sparseCutoff="1.0000000000000000"/>
      <sparseX i="625" alpha="450.66303588054291" sparseCutoff="1.0000000000000000"/>
      <sparseX i="626" alpha="208.65971925847515" sparseCutoff="1.0000000000000000"/>
      <sparseX i="627" alpha="735.11566097895752" sparseCutoff="1.0000000000000000"/>
      <sparseX i="628" alpha="1795.6976180149488" sparseCutoff="1.0000000000000000"/>
      <sparseX i="629" alpha="844.09523591262609" sparseCutoff="1.0000000000000000"/>
      <sparseX i="630" alpha="306.43553507986047" sparseCutoff="1.0000000000000000"/>
      <sparseX i="631" alpha="1964.2345018444878" sparseCutoff="1.0000000000000000"/>
      <sparseX i="632" alpha="292.13550820106445" sparseCutoff="1.0000000000000000"/>
      <sparseX i="633" alpha="-605.74051864963076" sparseCutoff="1.0000000000000000"/>
      <sparseX i="634" alpha="-672.35121702676349" sparseCutoff="1.0000000000000000"/>
      <sparseX i="635" alpha="452.22456366288526" sparseCutoff="1.0000000000000000"/>
      <sparseX i="636" alpha="173.54627436145782" sparseCutoff="1.0000000000000000"/>
      <sparseX i="637" alpha="-1847.6391904877851" sparseCutoff="1.0000000000000000"/>
      <sparseX i="638" alpha="1806.4423163267181" sparseCutoff="1.0000000000000000"/>
      <sparseX i="639" alpha="1049.8532536753014" sparseCutoff="1.0000000000000000"/>
      <sparseX i="640" alpha="1420.8513975328938" sparseCutoff="1.0000000000000000"/>
      <sparseX i="641" alpha="2350.6299206486465" sparseCutoff="1.0000000000000000"/>
      <sparseX i="642" alpha="-1450.8462387875754" sparseCutoff="1.0000000000000000"/>
      <sparseX i="643" alpha="-1243.1224602926261" sparseCutoff="1.0000000000000000"/>
      <sparseX i="644" alpha="3058.4344778725012" sparseCutoff="1.0000000000000000"/>
      <sparseX i="645" alpha="-413.07258935153783" sparseCutoff="1.0000000000000000"/>
      <sparseX i="646" alpha="1941.2071812902602" sparseCutoff="1.0000000000000000"/>
      <sparseX i="647" alpha="3.0043557360997704" sparseCutoff="1.0000000000000000"/>
      <sparseX i="648" alpha="-216.67283583639409" sparseCutoff="1.0000000000000000"/>
      <sparseX i="649" alpha="-828.40337578957985" sparseCutoff="1.0000000000000000"/>
      <sparseX i="650" alpha="-442.76243931819141" sparseCutoff="1.0000000000000000"/>
      <sparseX i="651" alpha="657.83600931420176" sparseCutoff="1.0000000000000000"/>
      <sparseX i="652" alpha="964.53452423543661" sparseCutoff="1.0000000000000000"/>
      <sparseX i="653" alpha="2141.3978141715247" sparseCutoff="1.0000000000000000"/>
      <sparseX i="654" alpha="963.05342760952158" sparseCutoff="1.0000000000000000"/>
      <sparseX i="655" alpha="2478.7696538934297" sparseCutoff="1.0000000000000000"/>
      <sparseX i="656" alpha="1284.6809838539723" sparseCutoff="1.0000000000000000"/>
      <sparseX i="657" alpha="-1777.6621353154781" sparseCutoff="1.0000000000000000"/>
      <sparseX i="658" alpha="130.30991972924332" sparseCutoff="1.0000000000000000"/>
      <sparseX i="659" alpha="1063.1891319609081" sparseCutoff="1.0000000000000000"/>
      <sparseX i="660" alpha="646.97775722939969" sparseCutoff="1.0000000000000000"/>
      <sparseX i="661" alpha="-117.91699119609270" sparseCutoff="1.0000000000000000"/>
      <sparseX i="662" alpha="962.93593905163277" sparseCutoff="1.0000000000000000"/>
      <sparseX i="663" alpha="1149.5577061455335" sparseCutoff="1.0000000000000000"/>
      <sparseX i="664" alpha="-1040.9173334148088" sparseCutoff="1.0000000000000000"/>
      <sparseX i="665" alpha="315.82331514524992" sparseCutoff="1.0000000000000000"/>
      <sparseX i="666" alpha="1331.9405948639785" sparseCutoff="1.0000000000000000"/>
      <sparseX i="667" alpha="-925.76588958893956" sparseCutoff="1.0000000000000000"/>
      <sparseX i="668" alpha="-755.82762784774206" sparseCutoff="1.0000000000000000"/>
      <sparseX i="669" alpha="184.04395061422241" sparseCutoff="1.0000000000000000"/>
      <sparseX i="670" alpha="1490.2522620160091" sparseCutoff="1.0000000000000000"/>
      <sparseX i="671" alpha="206.84753406442795" sparseCutoff="1.0000000000000000"/>
      <sparseX i="672" alpha="762.27859317232299" sparseCutoff="1.0000000000000000"/>
      <sparseX i="673" alpha="-142.69410397112568" sparseCutoff="1.0000000000000000"/>
      <sparseX i="674" alpha="984.62332718802395" sparseCutoff="1.0000000000000000"/>
      <sparseX i="675" alpha="1042.5553111404865" sparseCutoff="1.0000000000000000"/>
      <sparseX i="676" alpha="-904.03753908920555" sparseCutoff="1.0000000000000000"/>
      <sparseX i="677" alpha="1785.2444499148012" sparseCutoff="1.0000000000000000"/>
      <sparseX i="678" alpha="-1435.5975308761581" sparseCutoff="1.0000000000000000"/>
      <sparseX i="679" alpha="549.04627119382928" sparseCutoff="1.0000000000000000"/>
      <sparseX i="680" alpha="609.88164335885847" sparseCutoff="1.0000000000000000"/>
      <sparseX i="681" alpha="-1131.0618726896550" sparseCutoff="1.0000000000000000"/>
      <sparseX i="682" alpha="-697.04264444450587" sparseCutoff="1.0000000000000000"/>
      <sparseX i="683" alpha="-51.772845676321687" sparseCutoff="1.0000000000000000"/>
      <sparseX i="684" alpha="-358.37196460514929" sparseCutoff="1.0000000000000000"/>
      <sparseX i="685" alpha="2408.6642598479875" sparseCutoff="1.0000000000000000"/>
      <sparseX i="686" alpha="-163.86684455720146" sparseCutoff="1.0000000000000000"/>
      <sparseX i="687" alpha="-384.38737456369586" sparseCutoff="1.0000000000000000"/>
      <sparseX i="688" alpha="630.62721746240879" sparseCutoff="1.0000000000000000"/>
      <sparseX i="689" alpha="299.65572950517213" sparseCutoff="1.0000000000000000"/>
      <sparseX i="690" alpha="96.965363538983127" sparseCutoff="1.0000000000000000"/>
      <sparseX i="691" alpha="1662.9555789169224" sparseCutoff="1.0000000000000000"/>
      <sparseX i="692" alpha="-1356.4096048563526" sparseCutoff="1.0000000000000000"/>
      <sparseX i="693" alpha="-1352.2698260350896" sparseCutoff="1.0000000000000000"/>
      <sparseX i="694" alpha="1167.0810219700415" sparseCutoff="1.0000000000000000"/>
      <sparseX i="695" alpha="984.47368144971665" sparseCutoff="1.0000000000000000"/>
      <sparseX i="696" alpha="149.97599097986935" sparseCutoff="1.0000000000000000"/>
      <sparseX i="697" alpha="364.63063217122453" sparseCutoff="1.0000000000000000"/>
      <sparseX i="698" alpha="-363.16424919757378" sparseCutoff="1.0000000000000000"/>
      <sparseX i="699" alpha="-201.06436554700744" sparseCutoff="1.0000000000000000"/>
      <sparseX i="700" alpha="446.39682525981601" sparseCutoff="1.0000000000000000"/>
      <sparseX i="701" alpha="937.23531196665704" sparseCutoff="1.0000000000000000"/>
      <sparseX i="702" alpha="1944.4874362213425" sparseCutoff="1.0000000000000000"/>
      <sparseX i="703" alpha="-36.738296468186327" sparseCutoff="1.0000000000000000"/>
      <sparseX i="704" alpha="-863.91181105044734" sparseCutoff="1.0000000000000000"/>
      <sparseX i="705" alpha="889.35723491449528" sparseCutoff="1.0000000000000000"/>
      <sparseX i="706" alpha="236.42459918978307" sparseCutoff="1.0000000000000000"/>
      <sparseX i="707" alpha="1045.7671396801486" sparseCutoff="1.0000000000000000"/>
      <sparseX i="708" alpha="-149.75209879512701" sparseCutoff="1.0000000000000000"/>
      <sparseX i="709" alpha="-17.797527269421693" sparseCutoff="1.0000000000000000"/>
      <sparseX i="710" alpha="609.81519007533166" sparseCutoff="1.0000000000000000"/>
      <sparseX i="711" alpha="529.17960792295844" sparseCutoff="1.0000000000000000"/>
      <sparseX i="712" alpha="986.19423404999213" sparseCutoff="1.0000000000000000"/>
      <sparseX i="713" alpha="-269.82065117595459" sparseCutoff="1.0000000000000000"/>
      <sparseX i="714" alpha="-3156.3143436624682" sparseCutoff="1.0000000000000000"/>
      <sparseX i="715" alpha="-8950.9195549051929" sparseCutoff="1.0000000000000000"/>
      <sparseX i="716" alpha="325.15504736771908" sparseCutoff="1.0000000000000000"/>
      <sparseX i="717" alpha="-316.89673315975949" sparseCutoff="1.0000000000000000"/>
      <sparseX i="718" alpha="70.160866399113303" sparseCutoff="1.0000000000000000"/>
      <sparseX i="719" alpha="-323.99590342936136" sparseCutoff="1.0000000000000000"/>
      <sparseX i="720" alpha="-1318.4991809738563" sparseCutoff="1.0000000000000000"/>
      <sparseX i="721" alpha="-1301.6064110301709" sparseCutoff="1.0000000000000000"/>
      <sparseX i="722" alpha="-764.64677276385999" sparseCutoff="1.0000000000000000"/>
      <sparseX i="723" alpha="-104.69512690634889" sparseCutoff="1.0000000000000000"/>
      <sparseX i="724" alpha="-648.85497264289029" sparseCutoff="1.0000000000000000"/>
      <sparseX i="725" alpha="-1871.3285067498778" sparseCutoff="1.0000000000000000"/>
      <sparseX i="726" alpha="-338.48493821604177" sparseCutoff="1.0000000000000000"/>
      <sparseX i="727" alpha="-123.43091049559476" sparseCutoff="1.0000000000000000"/>
      <sparseX i="728" alpha="-1168.2843797073554" sparseCutoff="1.0000000000000000"/>
      <sparseX i="729" alpha="-5.2339170030624240" sparseCutoff="1.0000000000000000"/>
      <sparseX i="730" alpha="-1440.8272272509735" sparseCutoff="1.0000000000000000"/>
      <sparseX i="731" alpha="502.54154219704787" sparseCutoff="1.0000000000000000"/>
      <sparseX i="732" alpha="1446.7518642542911" sparseCutoff="1.0000000000000000"/>
      <sparseX i="733" alpha="-78.587661148874773" sparseCutoff="1.0000000000000000"/>
      <sparseX i="734" alpha="99.841060577314707" sparseCutoff="1.0000000000000000"/>
      <sparseX i="735" alpha="-885.46971644561256" sparseCutoff="1.0000000000000000"/>
      <sparseX i="736" alpha="-1381.7304963537006" sparseCutoff="1.0000000000000000"/>
      <sparseX i="737" alpha="-1089.4417040585288" sparseCutoff="1.0000000000000000"/>
      <sparseX i="738" alpha="129.14106124870983" sparseCutoff="1.0000000000000000"/>
      <sparseX i="739" alpha="946.73060171985662" sparseCutoff="1.0000000000000000"/>
      <sparseX i="740" alpha="-244.34356731213225" sparseCutoff="1.0000000000000000"/>
      <sparseX i="741" alpha="-833.92945423600747" sparseCutoff="1.0000000000000000"/>
      <sparseX i="742" alpha="-362.96768895472815" sparseCutoff="1.0000000000000000"/>
      <sparseX i="743" alpha="-164.23649286367828" sparseCutoff="1.0000000000000000"/>
      <sparseX i="744" alpha="-696.36069143182112" sparseCutoff="1.0000000000000000"/>
      <sparseX i="745" alpha="-3006.9439717745950" sparseCutoff="1.0000000000000000"/>
      <sparseX i="746" alpha="-969.78642870503279" sparseCutoff="1.0000000000000000"/>
      <sparseX i="747" alpha="160.23933921989055" sparseCutoff="1.0000000000000000"/>
      <sparseX i="748" alpha="3381.4063919389473" sparseCutoff="1.0000000000000000"/>
      <sparseX i="749" alpha="417.94033618085581" sparseCutoff="1.0000000000000000"/>
      <sparseX i="750" alpha="391.26320776203761" sparseCutoff="1.0000000000000000"/>
      <sparseX i="751" alpha="373.00187999485195" sparseCutoff="1.0000000000000000"/>
      <sparseX i="752" alpha="437.93455894277474" sparseCutoff="1.0000000000000000"/>
      <sparseX i="753" alpha="336.18040461451181" sparseCutoff="1.0000000000000000"/>
      <sparseX i="754" alpha="934.13648279337110" sparseCutoff="1.0000000000000000"/>
      <sparseX i="755" alpha="68.475795099018825" sparseCutoff="1.0000000000000000"/>
      <sparseX i="756" alpha="22.614312013107643" sparseCutoff="1.0000000000000000"/>
      <sparseX i="757" alpha="33.549731126706241" sparseCutoff="1.0000000000000000"/>
      <sparseX i="758" alpha="189.63612683893572" sparseCutoff="1.0000000000000000"/>
